tree
version=v4
num_class=3
num_tree_per_iteration=3
label_index=0
max_feature_idx=1919
objective=multiclass num_class:3
feature_names=Column_0 Column_1 Column_2 Column_3 Column_4 Column_5 Column_6 Column_7 Column_8 Column_9 Column_10 Column_11 Column_12 Column_13 Column_14 Column_15 Column_16 Column_17 Column_18 Column_19 Column_20 Column_21 Column_22 Column_23 Column_24 Column_25 Column_26 Column_27 Column_28 Column_29 Column_30 Column_31 Column_32 Column_33 Column_34 Column_35 Column_36 Column_37 Column_38 Column_39 Column_40 Column_41 Column_42 Column_43 Column_44 Column_45 Column_46 Column_47 Column_48 Column_49 Column_50 Column_51 Column_52 Column_53 Column_54 Column_55 Column_56 Column_57 Column_58 Column_59 Column_60 Column_61 Column_62 Column_63 Column_64 Column_65 Column_66 Column_67 Column_68 Column_69 Column_70 Column_71 Column_72 Column_73 Column_74 Column_75 Column_76 Column_77 Column_78 Column_79 Column_80 Column_81 Column_82 Column_83 Column_84 Column_85 Column_86 Column_87 Column_88 Column_89 Column_90 Column_91 Column_92 Column_93 Column_94 Column_95 Column_96 Column_97 Column_98 Column_99 Column_100 Column_101 Column_102 Column_103 Column_104 Column_105 Column_106 Column_107 Column_108 Column_109 Column_110 Column_111 Column_112 Column_113 Column_114 Column_115 Column_116 Column_117 Column_118 Column_119 Column_120 Column_121 Column_122 Column_123 Column_124 Column_125 Column_126 Column_127 Column_128 Column_129 Column_130 Column_131 Column_132 Column_133 Column_134 Column_135 Column_136 Column_137 Column_138 Column_139 Column_140 Column_141 Column_142 Column_143 Column_144 Column_145 Column_146 Column_147 Column_148 Column_149 Column_150 Column_151 Column_152 Column_153 Column_154 Column_155 Column_156 Column_157 Column_158 Column_159 Column_160 Column_161 Column_162 Column_163 Column_164 Column_165 Column_166 Column_167 Column_168 Column_169 Column_170 Column_171 Column_172 Column_173 Column_174 Column_175 Column_176 Column_177 Column_178 Column_179 Column_180 Column_181 Column_182 Column_183 Column_184 Column_185 Column_186 Column_187 Column_188 Column_189 Column_190 Column_191 Column_192 Column_193 Column_194 Column_195 Column_196 Column_197 Column_198 Column_199 Column_200 Column_201 Column_202 Column_203 Column_204 Column_205 Column_206 Column_207 Column_208 Column_209 Column_210 Column_211 Column_212 Column_213 Column_214 Column_215 Column_216 Column_217 Column_218 Column_219 Column_220 Column_221 Column_222 Column_223 Column_224 Column_225 Column_226 Column_227 Column_228 Column_229 Column_230 Column_231 Column_232 Column_233 Column_234 Column_235 Column_236 Column_237 Column_238 Column_239 Column_240 Column_241 Column_242 Column_243 Column_244 Column_245 Column_246 Column_247 Column_248 Column_249 Column_250 Column_251 Column_252 Column_253 Column_254 Column_255 Column_256 Column_257 Column_258 Column_259 Column_260 Column_261 Column_262 Column_263 Column_264 Column_265 Column_266 Column_267 Column_268 Column_269 Column_270 Column_271 Column_272 Column_273 Column_274 Column_275 Column_276 Column_277 Column_278 Column_279 Column_280 Column_281 Column_282 Column_283 Column_284 Column_285 Column_286 Column_287 Column_288 Column_289 Column_290 Column_291 Column_292 Column_293 Column_294 Column_295 Column_296 Column_297 Column_298 Column_299 Column_300 Column_301 Column_302 Column_303 Column_304 Column_305 Column_306 Column_307 Column_308 Column_309 Column_310 Column_311 Column_312 Column_313 Column_314 Column_315 Column_316 Column_317 Column_318 Column_319 Column_320 Column_321 Column_322 Column_323 Column_324 Column_325 Column_326 Column_327 Column_328 Column_329 Column_330 Column_331 Column_332 Column_333 Column_334 Column_335 Column_336 Column_337 Column_338 Column_339 Column_340 Column_341 Column_342 Column_343 Column_344 Column_345 Column_346 Column_347 Column_348 Column_349 Column_350 Column_351 Column_352 Column_353 Column_354 Column_355 Column_356 Column_357 Column_358 Column_359 Column_360 Column_361 Column_362 Column_363 Column_364 Column_365 Column_366 Column_367 Column_368 Column_369 Column_370 Column_371 Column_372 Column_373 Column_374 Column_375 Column_376 Column_377 Column_378 Column_379 Column_380 Column_381 Column_382 Column_383 Column_384 Column_385 Column_386 Column_387 Column_388 Column_389 Column_390 Column_391 Column_392 Column_393 Column_394 Column_395 Column_396 Column_397 Column_398 Column_399 Column_400 Column_401 Column_402 Column_403 Column_404 Column_405 Column_406 Column_407 Column_408 Column_409 Column_410 Column_411 Column_412 Column_413 Column_414 Column_415 Column_416 Column_417 Column_418 Column_419 Column_420 Column_421 Column_422 Column_423 Column_424 Column_425 Column_426 Column_427 Column_428 Column_429 Column_430 Column_431 Column_432 Column_433 Column_434 Column_435 Column_436 Column_437 Column_438 Column_439 Column_440 Column_441 Column_442 Column_443 Column_444 Column_445 Column_446 Column_447 Column_448 Column_449 Column_450 Column_451 Column_452 Column_453 Column_454 Column_455 Column_456 Column_457 Column_458 Column_459 Column_460 Column_461 Column_462 Column_463 Column_464 Column_465 Column_466 Column_467 Column_468 Column_469 Column_470 Column_471 Column_472 Column_473 Column_474 Column_475 Column_476 Column_477 Column_478 Column_479 Column_480 Column_481 Column_482 Column_483 Column_484 Column_485 Column_486 Column_487 Column_488 Column_489 Column_490 Column_491 Column_492 Column_493 Column_494 Column_495 Column_496 Column_497 Column_498 Column_499 Column_500 Column_501 Column_502 Column_503 Column_504 Column_505 Column_506 Column_507 Column_508 Column_509 Column_510 Column_511 Column_512 Column_513 Column_514 Column_515 Column_516 Column_517 Column_518 Column_519 Column_520 Column_521 Column_522 Column_523 Column_524 Column_525 Column_526 Column_527 Column_528 Column_529 Column_530 Column_531 Column_532 Column_533 Column_534 Column_535 Column_536 Column_537 Column_538 Column_539 Column_540 Column_541 Column_542 Column_543 Column_544 Column_545 Column_546 Column_547 Column_548 Column_549 Column_550 Column_551 Column_552 Column_553 Column_554 Column_555 Column_556 Column_557 Column_558 Column_559 Column_560 Column_561 Column_562 Column_563 Column_564 Column_565 Column_566 Column_567 Column_568 Column_569 Column_570 Column_571 Column_572 Column_573 Column_574 Column_575 Column_576 Column_577 Column_578 Column_579 Column_580 Column_581 Column_582 Column_583 Column_584 Column_585 Column_586 Column_587 Column_588 Column_589 Column_590 Column_591 Column_592 Column_593 Column_594 Column_595 Column_596 Column_597 Column_598 Column_599 Column_600 Column_601 Column_602 Column_603 Column_604 Column_605 Column_606 Column_607 Column_608 Column_609 Column_610 Column_611 Column_612 Column_613 Column_614 Column_615 Column_616 Column_617 Column_618 Column_619 Column_620 Column_621 Column_622 Column_623 Column_624 Column_625 Column_626 Column_627 Column_628 Column_629 Column_630 Column_631 Column_632 Column_633 Column_634 Column_635 Column_636 Column_637 Column_638 Column_639 Column_640 Column_641 Column_642 Column_643 Column_644 Column_645 Column_646 Column_647 Column_648 Column_649 Column_650 Column_651 Column_652 Column_653 Column_654 Column_655 Column_656 Column_657 Column_658 Column_659 Column_660 Column_661 Column_662 Column_663 Column_664 Column_665 Column_666 Column_667 Column_668 Column_669 Column_670 Column_671 Column_672 Column_673 Column_674 Column_675 Column_676 Column_677 Column_678 Column_679 Column_680 Column_681 Column_682 Column_683 Column_684 Column_685 Column_686 Column_687 Column_688 Column_689 Column_690 Column_691 Column_692 Column_693 Column_694 Column_695 Column_696 Column_697 Column_698 Column_699 Column_700 Column_701 Column_702 Column_703 Column_704 Column_705 Column_706 Column_707 Column_708 Column_709 Column_710 Column_711 Column_712 Column_713 Column_714 Column_715 Column_716 Column_717 Column_718 Column_719 Column_720 Column_721 Column_722 Column_723 Column_724 Column_725 Column_726 Column_727 Column_728 Column_729 Column_730 Column_731 Column_732 Column_733 Column_734 Column_735 Column_736 Column_737 Column_738 Column_739 Column_740 Column_741 Column_742 Column_743 Column_744 Column_745 Column_746 Column_747 Column_748 Column_749 Column_750 Column_751 Column_752 Column_753 Column_754 Column_755 Column_756 Column_757 Column_758 Column_759 Column_760 Column_761 Column_762 Column_763 Column_764 Column_765 Column_766 Column_767 Column_768 Column_769 Column_770 Column_771 Column_772 Column_773 Column_774 Column_775 Column_776 Column_777 Column_778 Column_779 Column_780 Column_781 Column_782 Column_783 Column_784 Column_785 Column_786 Column_787 Column_788 Column_789 Column_790 Column_791 Column_792 Column_793 Column_794 Column_795 Column_796 Column_797 Column_798 Column_799 Column_800 Column_801 Column_802 Column_803 Column_804 Column_805 Column_806 Column_807 Column_808 Column_809 Column_810 Column_811 Column_812 Column_813 Column_814 Column_815 Column_816 Column_817 Column_818 Column_819 Column_820 Column_821 Column_822 Column_823 Column_824 Column_825 Column_826 Column_827 Column_828 Column_829 Column_830 Column_831 Column_832 Column_833 Column_834 Column_835 Column_836 Column_837 Column_838 Column_839 Column_840 Column_841 Column_842 Column_843 Column_844 Column_845 Column_846 Column_847 Column_848 Column_849 Column_850 Column_851 Column_852 Column_853 Column_854 Column_855 Column_856 Column_857 Column_858 Column_859 Column_860 Column_861 Column_862 Column_863 Column_864 Column_865 Column_866 Column_867 Column_868 Column_869 Column_870 Column_871 Column_872 Column_873 Column_874 Column_875 Column_876 Column_877 Column_878 Column_879 Column_880 Column_881 Column_882 Column_883 Column_884 Column_885 Column_886 Column_887 Column_888 Column_889 Column_890 Column_891 Column_892 Column_893 Column_894 Column_895 Column_896 Column_897 Column_898 Column_899 Column_900 Column_901 Column_902 Column_903 Column_904 Column_905 Column_906 Column_907 Column_908 Column_909 Column_910 Column_911 Column_912 Column_913 Column_914 Column_915 Column_916 Column_917 Column_918 Column_919 Column_920 Column_921 Column_922 Column_923 Column_924 Column_925 Column_926 Column_927 Column_928 Column_929 Column_930 Column_931 Column_932 Column_933 Column_934 Column_935 Column_936 Column_937 Column_938 Column_939 Column_940 Column_941 Column_942 Column_943 Column_944 Column_945 Column_946 Column_947 Column_948 Column_949 Column_950 Column_951 Column_952 Column_953 Column_954 Column_955 Column_956 Column_957 Column_958 Column_959 Column_960 Column_961 Column_962 Column_963 Column_964 Column_965 Column_966 Column_967 Column_968 Column_969 Column_970 Column_971 Column_972 Column_973 Column_974 Column_975 Column_976 Column_977 Column_978 Column_979 Column_980 Column_981 Column_982 Column_983 Column_984 Column_985 Column_986 Column_987 Column_988 Column_989 Column_990 Column_991 Column_992 Column_993 Column_994 Column_995 Column_996 Column_997 Column_998 Column_999 Column_1000 Column_1001 Column_1002 Column_1003 Column_1004 Column_1005 Column_1006 Column_1007 Column_1008 Column_1009 Column_1010 Column_1011 Column_1012 Column_1013 Column_1014 Column_1015 Column_1016 Column_1017 Column_1018 Column_1019 Column_1020 Column_1021 Column_1022 Column_1023 Column_1024 Column_1025 Column_1026 Column_1027 Column_1028 Column_1029 Column_1030 Column_1031 Column_1032 Column_1033 Column_1034 Column_1035 Column_1036 Column_1037 Column_1038 Column_1039 Column_1040 Column_1041 Column_1042 Column_1043 Column_1044 Column_1045 Column_1046 Column_1047 Column_1048 Column_1049 Column_1050 Column_1051 Column_1052 Column_1053 Column_1054 Column_1055 Column_1056 Column_1057 Column_1058 Column_1059 Column_1060 Column_1061 Column_1062 Column_1063 Column_1064 Column_1065 Column_1066 Column_1067 Column_1068 Column_1069 Column_1070 Column_1071 Column_1072 Column_1073 Column_1074 Column_1075 Column_1076 Column_1077 Column_1078 Column_1079 Column_1080 Column_1081 Column_1082 Column_1083 Column_1084 Column_1085 Column_1086 Column_1087 Column_1088 Column_1089 Column_1090 Column_1091 Column_1092 Column_1093 Column_1094 Column_1095 Column_1096 Column_1097 Column_1098 Column_1099 Column_1100 Column_1101 Column_1102 Column_1103 Column_1104 Column_1105 Column_1106 Column_1107 Column_1108 Column_1109 Column_1110 Column_1111 Column_1112 Column_1113 Column_1114 Column_1115 Column_1116 Column_1117 Column_1118 Column_1119 Column_1120 Column_1121 Column_1122 Column_1123 Column_1124 Column_1125 Column_1126 Column_1127 Column_1128 Column_1129 Column_1130 Column_1131 Column_1132 Column_1133 Column_1134 Column_1135 Column_1136 Column_1137 Column_1138 Column_1139 Column_1140 Column_1141 Column_1142 Column_1143 Column_1144 Column_1145 Column_1146 Column_1147 Column_1148 Column_1149 Column_1150 Column_1151 Column_1152 Column_1153 Column_1154 Column_1155 Column_1156 Column_1157 Column_1158 Column_1159 Column_1160 Column_1161 Column_1162 Column_1163 Column_1164 Column_1165 Column_1166 Column_1167 Column_1168 Column_1169 Column_1170 Column_1171 Column_1172 Column_1173 Column_1174 Column_1175 Column_1176 Column_1177 Column_1178 Column_1179 Column_1180 Column_1181 Column_1182 Column_1183 Column_1184 Column_1185 Column_1186 Column_1187 Column_1188 Column_1189 Column_1190 Column_1191 Column_1192 Column_1193 Column_1194 Column_1195 Column_1196 Column_1197 Column_1198 Column_1199 Column_1200 Column_1201 Column_1202 Column_1203 Column_1204 Column_1205 Column_1206 Column_1207 Column_1208 Column_1209 Column_1210 Column_1211 Column_1212 Column_1213 Column_1214 Column_1215 Column_1216 Column_1217 Column_1218 Column_1219 Column_1220 Column_1221 Column_1222 Column_1223 Column_1224 Column_1225 Column_1226 Column_1227 Column_1228 Column_1229 Column_1230 Column_1231 Column_1232 Column_1233 Column_1234 Column_1235 Column_1236 Column_1237 Column_1238 Column_1239 Column_1240 Column_1241 Column_1242 Column_1243 Column_1244 Column_1245 Column_1246 Column_1247 Column_1248 Column_1249 Column_1250 Column_1251 Column_1252 Column_1253 Column_1254 Column_1255 Column_1256 Column_1257 Column_1258 Column_1259 Column_1260 Column_1261 Column_1262 Column_1263 Column_1264 Column_1265 Column_1266 Column_1267 Column_1268 Column_1269 Column_1270 Column_1271 Column_1272 Column_1273 Column_1274 Column_1275 Column_1276 Column_1277 Column_1278 Column_1279 Column_1280 Column_1281 Column_1282 Column_1283 Column_1284 Column_1285 Column_1286 Column_1287 Column_1288 Column_1289 Column_1290 Column_1291 Column_1292 Column_1293 Column_1294 Column_1295 Column_1296 Column_1297 Column_1298 Column_1299 Column_1300 Column_1301 Column_1302 Column_1303 Column_1304 Column_1305 Column_1306 Column_1307 Column_1308 Column_1309 Column_1310 Column_1311 Column_1312 Column_1313 Column_1314 Column_1315 Column_1316 Column_1317 Column_1318 Column_1319 Column_1320 Column_1321 Column_1322 Column_1323 Column_1324 Column_1325 Column_1326 Column_1327 Column_1328 Column_1329 Column_1330 Column_1331 Column_1332 Column_1333 Column_1334 Column_1335 Column_1336 Column_1337 Column_1338 Column_1339 Column_1340 Column_1341 Column_1342 Column_1343 Column_1344 Column_1345 Column_1346 Column_1347 Column_1348 Column_1349 Column_1350 Column_1351 Column_1352 Column_1353 Column_1354 Column_1355 Column_1356 Column_1357 Column_1358 Column_1359 Column_1360 Column_1361 Column_1362 Column_1363 Column_1364 Column_1365 Column_1366 Column_1367 Column_1368 Column_1369 Column_1370 Column_1371 Column_1372 Column_1373 Column_1374 Column_1375 Column_1376 Column_1377 Column_1378 Column_1379 Column_1380 Column_1381 Column_1382 Column_1383 Column_1384 Column_1385 Column_1386 Column_1387 Column_1388 Column_1389 Column_1390 Column_1391 Column_1392 Column_1393 Column_1394 Column_1395 Column_1396 Column_1397 Column_1398 Column_1399 Column_1400 Column_1401 Column_1402 Column_1403 Column_1404 Column_1405 Column_1406 Column_1407 Column_1408 Column_1409 Column_1410 Column_1411 Column_1412 Column_1413 Column_1414 Column_1415 Column_1416 Column_1417 Column_1418 Column_1419 Column_1420 Column_1421 Column_1422 Column_1423 Column_1424 Column_1425 Column_1426 Column_1427 Column_1428 Column_1429 Column_1430 Column_1431 Column_1432 Column_1433 Column_1434 Column_1435 Column_1436 Column_1437 Column_1438 Column_1439 Column_1440 Column_1441 Column_1442 Column_1443 Column_1444 Column_1445 Column_1446 Column_1447 Column_1448 Column_1449 Column_1450 Column_1451 Column_1452 Column_1453 Column_1454 Column_1455 Column_1456 Column_1457 Column_1458 Column_1459 Column_1460 Column_1461 Column_1462 Column_1463 Column_1464 Column_1465 Column_1466 Column_1467 Column_1468 Column_1469 Column_1470 Column_1471 Column_1472 Column_1473 Column_1474 Column_1475 Column_1476 Column_1477 Column_1478 Column_1479 Column_1480 Column_1481 Column_1482 Column_1483 Column_1484 Column_1485 Column_1486 Column_1487 Column_1488 Column_1489 Column_1490 Column_1491 Column_1492 Column_1493 Column_1494 Column_1495 Column_1496 Column_1497 Column_1498 Column_1499 Column_1500 Column_1501 Column_1502 Column_1503 Column_1504 Column_1505 Column_1506 Column_1507 Column_1508 Column_1509 Column_1510 Column_1511 Column_1512 Column_1513 Column_1514 Column_1515 Column_1516 Column_1517 Column_1518 Column_1519 Column_1520 Column_1521 Column_1522 Column_1523 Column_1524 Column_1525 Column_1526 Column_1527 Column_1528 Column_1529 Column_1530 Column_1531 Column_1532 Column_1533 Column_1534 Column_1535 Column_1536 Column_1537 Column_1538 Column_1539 Column_1540 Column_1541 Column_1542 Column_1543 Column_1544 Column_1545 Column_1546 Column_1547 Column_1548 Column_1549 Column_1550 Column_1551 Column_1552 Column_1553 Column_1554 Column_1555 Column_1556 Column_1557 Column_1558 Column_1559 Column_1560 Column_1561 Column_1562 Column_1563 Column_1564 Column_1565 Column_1566 Column_1567 Column_1568 Column_1569 Column_1570 Column_1571 Column_1572 Column_1573 Column_1574 Column_1575 Column_1576 Column_1577 Column_1578 Column_1579 Column_1580 Column_1581 Column_1582 Column_1583 Column_1584 Column_1585 Column_1586 Column_1587 Column_1588 Column_1589 Column_1590 Column_1591 Column_1592 Column_1593 Column_1594 Column_1595 Column_1596 Column_1597 Column_1598 Column_1599 Column_1600 Column_1601 Column_1602 Column_1603 Column_1604 Column_1605 Column_1606 Column_1607 Column_1608 Column_1609 Column_1610 Column_1611 Column_1612 Column_1613 Column_1614 Column_1615 Column_1616 Column_1617 Column_1618 Column_1619 Column_1620 Column_1621 Column_1622 Column_1623 Column_1624 Column_1625 Column_1626 Column_1627 Column_1628 Column_1629 Column_1630 Column_1631 Column_1632 Column_1633 Column_1634 Column_1635 Column_1636 Column_1637 Column_1638 Column_1639 Column_1640 Column_1641 Column_1642 Column_1643 Column_1644 Column_1645 Column_1646 Column_1647 Column_1648 Column_1649 Column_1650 Column_1651 Column_1652 Column_1653 Column_1654 Column_1655 Column_1656 Column_1657 Column_1658 Column_1659 Column_1660 Column_1661 Column_1662 Column_1663 Column_1664 Column_1665 Column_1666 Column_1667 Column_1668 Column_1669 Column_1670 Column_1671 Column_1672 Column_1673 Column_1674 Column_1675 Column_1676 Column_1677 Column_1678 Column_1679 Column_1680 Column_1681 Column_1682 Column_1683 Column_1684 Column_1685 Column_1686 Column_1687 Column_1688 Column_1689 Column_1690 Column_1691 Column_1692 Column_1693 Column_1694 Column_1695 Column_1696 Column_1697 Column_1698 Column_1699 Column_1700 Column_1701 Column_1702 Column_1703 Column_1704 Column_1705 Column_1706 Column_1707 Column_1708 Column_1709 Column_1710 Column_1711 Column_1712 Column_1713 Column_1714 Column_1715 Column_1716 Column_1717 Column_1718 Column_1719 Column_1720 Column_1721 Column_1722 Column_1723 Column_1724 Column_1725 Column_1726 Column_1727 Column_1728 Column_1729 Column_1730 Column_1731 Column_1732 Column_1733 Column_1734 Column_1735 Column_1736 Column_1737 Column_1738 Column_1739 Column_1740 Column_1741 Column_1742 Column_1743 Column_1744 Column_1745 Column_1746 Column_1747 Column_1748 Column_1749 Column_1750 Column_1751 Column_1752 Column_1753 Column_1754 Column_1755 Column_1756 Column_1757 Column_1758 Column_1759 Column_1760 Column_1761 Column_1762 Column_1763 Column_1764 Column_1765 Column_1766 Column_1767 Column_1768 Column_1769 Column_1770 Column_1771 Column_1772 Column_1773 Column_1774 Column_1775 Column_1776 Column_1777 Column_1778 Column_1779 Column_1780 Column_1781 Column_1782 Column_1783 Column_1784 Column_1785 Column_1786 Column_1787 Column_1788 Column_1789 Column_1790 Column_1791 Column_1792 Column_1793 Column_1794 Column_1795 Column_1796 Column_1797 Column_1798 Column_1799 Column_1800 Column_1801 Column_1802 Column_1803 Column_1804 Column_1805 Column_1806 Column_1807 Column_1808 Column_1809 Column_1810 Column_1811 Column_1812 Column_1813 Column_1814 Column_1815 Column_1816 Column_1817 Column_1818 Column_1819 Column_1820 Column_1821 Column_1822 Column_1823 Column_1824 Column_1825 Column_1826 Column_1827 Column_1828 Column_1829 Column_1830 Column_1831 Column_1832 Column_1833 Column_1834 Column_1835 Column_1836 Column_1837 Column_1838 Column_1839 Column_1840 Column_1841 Column_1842 Column_1843 Column_1844 Column_1845 Column_1846 Column_1847 Column_1848 Column_1849 Column_1850 Column_1851 Column_1852 Column_1853 Column_1854 Column_1855 Column_1856 Column_1857 Column_1858 Column_1859 Column_1860 Column_1861 Column_1862 Column_1863 Column_1864 Column_1865 Column_1866 Column_1867 Column_1868 Column_1869 Column_1870 Column_1871 Column_1872 Column_1873 Column_1874 Column_1875 Column_1876 Column_1877 Column_1878 Column_1879 Column_1880 Column_1881 Column_1882 Column_1883 Column_1884 Column_1885 Column_1886 Column_1887 Column_1888 Column_1889 Column_1890 Column_1891 Column_1892 Column_1893 Column_1894 Column_1895 Column_1896 Column_1897 Column_1898 Column_1899 Column_1900 Column_1901 Column_1902 Column_1903 Column_1904 Column_1905 Column_1906 Column_1907 Column_1908 Column_1909 Column_1910 Column_1911 Column_1912 Column_1913 Column_1914 Column_1915 Column_1916 Column_1917 Column_1918 Column_1919
feature_infos=[-3.9927005566632467:6.8582734544440207] [-3.6788310694717659:6.956559251373462] [-3.956536533775997:6.9279068989751398] [-4.0356904042842077:7.1866022007402375] [-2.1251139830481023:37.50581910740673] [-4.0599447930735906:6.8801726805017775] [-3.5076600743439292:5.7694774313099506] [-10.342033050540827:9.8134076908053274] [-3.4069728118293559:6.3661809833441252] [-3.04352838396498:5.5181980821936474] [-3.38118500484009:3.0803052260171633] [-8.5855815897997143:6.7077668602944449] [-8.1133468705332348:6.7253238889480791] [-12.608922485004511:6.9614652493306224] [-5.9480982996590663:6.9426226291832212] [-2.2661851969107456:8.8230483267123052] [-2.228354737437138:6.2957189897522525] [-1.7386355700518388:11.22922119048582] [-1.8442302731102025:9.5371888630754231] [-3.6528097678801918:3.9710702917580432] [-2.93201374724014:4.1883858575881261] [-14.530409861296228:19.216521931200486] [-11.330406950783649:13.274344961588241] [-13.771236602816394:13.090438812765518] [-10.786763771017238:12.132005400677652] [-11.239845354260678:11.197134196758043] [-7.6508524644172526:7.3626404840201971] [-5.3400039058717406:7.7870510271110547] [-10.289408615690482:6.3706518372745995] [-1.6557209876296652:11.238021921687222] [-19.318322457780148:15.349402730322414] [-2.2661851969107456:8.8230483267123034] [-4.476154674581168:6.8777511650931622] [-4.2521761542032044:6.7564491557885296] [-4.7824252609783278:6.6562908317416154] [-4.1874893086637215:6.7271230649479454] [-2.4112320988348519:37.98354551406721] [-4.0791610879916123:6.764222672932851] [-3.5112493522441057:5.7302903021123095] [-10.22347144419272:8.7926859407736515] [-3.4101376596863537:6.3881494651915887] [-3.0409870361911402:5.61430628539709] [-3.2809590528274826:3.0803052260171633] [-8.5360229535354382:6.7804682755057906] [-8.1813676710170213:6.7199746734368038] [-12.448744381815521:6.9694653547399179] [-6.3690234074938417:5.8890083238834183] [-2.2266217720314656:8.8443650957113338] [-2.1664665577463604:5.9432030041807327] [-1.7347260858030855:11.481097166115065] [-1.8549637508036687:9.5290879951941054] [-3.7532805606214148:4.600386321162353] [-2.7742380533131197:4.186214699084057] [-16.036208528177525:15.241324198957015] [-14.675011354108323:18.639275657992982] [-13.771236602816394:15.333070560133844] [-10.786763771017238:15.043081770831945] [-11.239845354260678:13.324072623775493] [-7.760894734451445:8.1318763811324608] [-5.6387325464724229:9.1393959649225476] [-10.832526330875304:6.4309648618070261] [-1.6402943906295715:11.22587480285422] [-18.90794532881042:13.02458424412573] [-2.2266217720314656:8.8443650957113338] [-4.476154674581168:7.0613989093962184] [-4.2521761542032044:6.9647266712476545] [-4.7824252609783278:6.8835898872062069] [-4.4946722900144378:6.8905241585489749] [-2.0912877019213236:37.004168529920619] [-3.966745896638205:6.8526590068401338] [-3.5540310549999905:5.8037115114351074] [-10.235613908990929:7.825654442659447] [-3.4069728118293559:6.2622879556279472] [-3.0696959527564389:5.5940824986999367] [-3.2897211262819179:2.9834956700222581] [-8.719949999612238:6.8859110447022589] [-7.9836294159738639:6.6193488602783601] [-12.806128143258036:6.9966962098910654] [-6.3690234074938417:6.2901769985755189] [-2.1979134934686972:8.8230483267123052] [-2.2144429191216148:5.6283748618622731] [-1.7402792471097535:11.421681990588892] [-1.7629409820614792:9.5290879951941054] [-4.5856090356324479:3.8630543646041304] [-2.7587655460664777:4.1882060955869855] [-16.036208528177525:17.246038362262926] [-15.339653803058468:12.902992082271329] [-13.432264153381981:15.545115481049633] [-11.719990053471053:13.23938699306686] [-9.6144686597647873:13.069949660473403] [-7.25707238893603:9.9058216917879669] [-5.2432257339479262:7.5589529709452608] [-10.409782006295268:6.515773592383014] [-1.6288501449853396:11.238021921687222] [-18.90794532881042:14.965301608790906] [-2.1979134934686972:8.8230483267123034] [-4.1168467202738288:7.0613989093962184] [-3.8674858667300618:6.9647266712476545] [-4.424421791566111:6.9279068989751398] [-4.4946722900144378:7.1866022007402375] [-2.1361719141003741:37.98354551406721] [-4.0599447930735906:6.8801726805017775] [-3.5112493522441057:5.8505466792184597] [-10.729870645522436:7.4435728388351521] [-3.4101376596863537:6.3661809833441252] [-3.0862237880198968:5.528375079288824] [-3.3645519668677726:3.0658883219639468] [-8.8957409436162003:6.8859110447022589] [-7.9539009960611837:6.7253238889480791] [-12.608922485004511:6.9966962098910654] [-5.5023217400675328:6.6913456732676186] [-2.2549241582959212:8.8443650957113338] [-2.4608218983590699:5.541234682269077] [-1.7399396163983749:10.874380988416165] [-1.7629409820614792:9.5290879951941054] [-4.0011006174046715:3.484666072959651] [-2.9119115510503923:4.1884633899575086] [-15.148472464161827:17.246038362262926] [-14.675011354108323:18.043662960664655] [-12.201038120606174:13.090438812765518] [-11.042159608440789:13.471828923820874] [-10.517077062005063:12.334883376778333] [-7.2757103197356292:10.419010295019758] [-5.2598060308817232:7.6355413862872652] [-9.9607717722015749:6.515773592383014] [-1.6513707769367687:11.182211512925862] [-17.35720986345061:14.965301608790906] [-2.2549241582959212:8.8443650957113338] [-4.476154674581168:7.0613989093962184] [-4.2521761542032044:6.9647266712476545] [-4.7824252609783278:6.9279068989751398] [-4.1874893086637215:7.1866022007402375] [-2.1251139830481023:38.952508636057651] [-4.0791610879916123:6.8801726805017775] [-3.5540310549999905:5.7694774313099506] [-10.342033050540827:8.7003055617692251] [-3.4101376596863537:6.3881494651915887] [-3.100173818181124:5.61430628539709] [-3.3490181133468808:3.0658883219639468] [-8.874106548846207:6.8859110447022589] [-7.8876576929352726:6.7253238889480791] [-11.908421389511537:6.9694653547399179] [-5.6658899694084282:6.5355768549309108] [-2.2661851969107456:8.7810179291062145] [-2.4677436498107257:5.5067674815653929] [-1.7556214749277732:10.874380988416165] [-1.8442302731102025:9.244057651651401] [-4.5856090356324479:3.3251522822962469] [-2.9758743585776686:4.1884633899770396] [-14.530409861296228:15.371384430568762] [-11.772757775311929:18.043662960664655] [-13.432264153381981:13.849111467030262] [-11.304488258934835:15.043081770831945] [-9.5411754119417314:12.811326496206135] [-7.8704048404282663:11.071037743631733] [-5.1692331225060935:8.6491832048304289] [-10.940952498932303:6.3706518372745995] [-1.6557209876296652:11.22587480285422] [-19.318322457780148:13.692335380737477] [-2.2661851969107456:8.7810179291062127] [-4.1168467202738288:6.6968865574289085] [-3.8674858667300618:6.956559251373462] [-4.424421791566111:6.9279068989751398] [-4.4946722900144378:7.1866022007402375] [-2.0910409398667209:38.952508636057651] [-4.0791610879916123:6.8801726805017775] [-3.5112493522441057:5.8037115114351074] [-9.9237960218724215:8.2357335075614948] [-3.4069728118293559:6.3881494651915887] [-3.0716151219241681:5.61430628539709] [-3.38118500484009:3.0803052260171633] [-8.5855815897997143:6.8072821789419597] [-8.1133468705332348:6.7253238889480791] [-12.180725136987864:7.1267241390343585] [-5.9480982996590663:6.415157423361733] [-2.2266217720314656:8.6252865751728507] [-2.4608218983590699:5.508155958865764] [-1.7386355700518388:10.542023164950148] [-1.8549637508036687:9.7655657919939181] [-4.3356415993565678:3.5164998813237682] [-2.8039393473609104:4.2035248410019843] [-15.148472464161827:30.030201852214748] [-11.214084499853687:22.186404893644415] [-11.514721727000572:18.320953019525845] [-10.322417526762569:16.60357694917521] [-9.8263999285678416:15.156777666964301] [-7.7953772048353587:9.9058216917879669] [-4.9058564571095546:9.0539854292357624] [-10.447211282850134:6.4451798131712872] [-1.6402943906295715:11.497452556209495] [-17.35720986345061:25.912431021135305] [-2.2266217720314656:8.6252865751728489] [-3.9210788047204259:6.8777511650931622] [-3.4247314384513352:6.6843008440107567] [-3.9116394922222644:6.4332802730721275] [-4.0356904042842077:6.3807675992616444] [-2.1361719141003741:37.98354551406721] [-4.0599447930735906:6.764222672932851] [-3.5540310549999905:5.8505466792184597] [-10.342033050540827:7.186068784433858] [-3.3860491162217112:6.3881494651915887] [-3.04352838396498:5.61430628539709] [-3.265988394447624:3.0803052260171633] [-8.2220537251853667:6.7804682755057906] [-8.1813676710170213:6.7199746734368038] [-12.806128143258036:7.1267241390343585] [-6.3690234074938417:6.1216350969802775] [-2.1979134934686972:8.6513269764907061] [-2.4677436498107257:5.508155958865764] [-1.7294188637939063:10.604283451339123] [-1.8442302731102025:9.3523125236484024] [-3.7250664656985486:3.5471321160286355] [-2.9758743585776686:4.2035248410019843] [-16.288867884655819:19.216521931200486] [-11.971203223149953:21.600678958379273] [-12.187129223713185:18.035154492283791] [-10.322417526762569:15.894141460760855] [-10.517077062005063:14.954068249813659] [-7.8704048404282663:10.419010295019758] [-4.9719637906705829:7.5703317921161561] [-11.60423865732019:6.4946936751372295] [-1.6288501449853396:11.345251406320132] [-20.75934991357763:15.349402730322414] [-2.1979134934686972:8.6513269764907044] [-3.9927005566632467:7.0613989093962184] [-3.8348245601740278:6.9647266712476545] [-3.9955277052493252:6.8835898872062069] [-3.9866843295561751:6.8905241585489749] [-2.1251139830481023:37.98354551406721] [-4.0791610879916123:6.8526590068401338] [-3.5540310549999905:5.8505466792184597] [-9.939669111448417:7.8230945625236448] [-3.3087544383511434:6.2622879556279472] [-3.0696959527564389:5.5940824986999367] [-3.3645519668677726:3.0803052260171633] [-8.4773278095680809:6.8859110447022589] [-7.9836294159738639:6.6193488602783601] [-12.608922485004511:7.1267241390343585] [-5.527173191824291:6.5355768549309108] [-2.2438726375207221:8.8230483267123052] [-2.2144429191216148:5.5067674815653929] [-1.7353013855132575:10.86122542137651] [-1.8549637508036687:9.2547772912523509] [-3.9922945415709772:3.8630543646041304] [-2.8264840530487034:4.1884633899575086] [-16.288867884655819:30.030201852214748] [-11.971203223149953:22.186404893644415] [-11.140020828930293:18.320953019525845] [-9.9532336569835014:16.60357694917521] [-9.3565047437554867:15.156777666964301] [-7.8704048404282663:11.071037743631733] [-5.302750701892041:10.976752477381686] [-11.60423865732019:6.515773592383014] [-1.6470700141524921:11.497452556209495] [-20.75934991357763:25.912431021135305] [-2.2438726375207221:8.8230483267123034] [-4.476154674581168:6.8582734544440207] [-4.2521761542032044:6.956559251373462] [-4.7824252609783278:6.9279068989751398] [-4.1874893086637215:7.1866022007402375] [-2.4112320988348519:36.973438510149968] [-3.966745896638205:6.8801726805017775] [-3.5085963810646938:5.8505466792184597] [-10.795212417361933:10.049364856911065] [-3.2483579943249379:6.3661809833441252] [-3.0862237880198968:5.528375079288824] [-3.3490181133468808:3.0803052260171633] [-8.7042606583966204:6.7077668602944449] [-7.8876576929352726:6.7253238889480791] [-12.448744381815521:6.9614652493306224] [-5.9480982996590663:6.5355768549309108] [-2.0410839538007575:8.8443650957113338] [-2.4608218983590699:5.508155958865764] [-1.7347260858030855:10.874380988416165] [-1.7977249568620017:9.5371888630754231] [-4.5856090356324479:3.8630543646041304] [-2.8039393473609104:4.2035248410019843] [-16.288867884655819:19.216521931200486] [-12.661444833528272:21.600678958379273] [-12.859485858829355:18.035154492283791] [-11.719990053471053:15.894141460760855] [-9.5411754119417314:14.954068249813659] [-7.7953772048353587:8.0730390287338061] [-4.8946701062829483:10.345251241775454] [-10.447211282850134:6.4274644352396901] [-1.5463534448693661:11.345251406320132] [-21.161818631166881:15.349402730322414] [-2.0410839538007544:8.8443650957113338] [-4.1168467202738288:6.6161925781935418] [-3.8674858667300618:6.495081333980349] [-4.424421791566111:6.4232734169950474] [-4.4946722900144378:6.7271230649479454] [-2.0271378365777011:37.98354551406721] [-3.7786661629514313:6.764222672932851] [-3.5076600743439292:5.7694774313099506] [-10.795212417361933:12.014789018105828] [-3.3308367754462807:6.3881494651915887] [-3.100173818181124:5.61430628539709] [-3.2665883315730584:3.008809910432225] [-8.7124817508288999:6.6873839621380569] [-7.8421375971854301:6.7199746734368038] [-12.806128143258036:6.9694653547399179] [-6.3690234074938417:6.1563084939898287] [-2.2549241582959212:8.7810179291062145] [-2.4677436498107257:5.4684449057928104] [-1.7402792471097535:10.542023164950148] [-1.7977249568620017:9.5290879951941054] [-4.5856090356324479:4.0545978658001562] [-2.7815426389584927:4.1884486549070408] [-14.530409861296228:16.821837993400774] [-15.339653803058468:18.639275657992982] [-13.771236602816394:17.480039114121706] [-10.857462243929739:15.576709418915033] [-11.239845354260678:14.253262729827403] [-7.8704048404282663:7.5786726360033496] [-4.9658565016419365:9.4713174295185709] [-10.428295323051795:6.515773592383014] [-1.6513707769367687:11.250634313082852] [-19.318322457780148:14.636381687290632] [-2.2549241582959212:8.7810179291062127] [-3.9927005566632467:6.8777511650931622] [-3.7547142194999923:6.6843008440107567] [-3.956536533775997:6.4332802730721275] [-4.0356904042842077:6.3807675992616444] [-2.1251139830481023:37.582131699068597] [-4.0599447930735906:6.6794358082538894] [-3.4441899910027551:5.8037115114351074] [-10.672350376423633:10.866643076339161] [-3.4101376596863537:6.190487265679808] [-3.0716151219241681:5.5940824986999367] [-3.3645519668677726:3.0803052260171633] [-8.7124817508288999:6.8072821789419597] [-7.8733067944025077:6.5253758000534541] [-12.806128143258036:7.1267241390343585] [-6.3690234074938417:6.5494655615865245] [-2.0594912683379647:8.5922350483409495] [-2.1592776019102797:5.4810494871991162] [-1.795444139875328:10.47967366884202] [-1.8442302731102025:9.5290879951941054] [-4.0011006174046715:4.5193672580098747] [-2.8969040172447378:4.1884633899575086] [-16.288867884655819:14.738104330719741] [-11.971203223149953:13.452913167404873] [-13.432264153381981:15.244292103856175] [-11.304488258934835:15.136477025858319] [-9.6157871464488185:14.004243048077042] [-7.7953772048353587:8.0730390287338061] [-5.2355195417838596:9.1393959649225476] [-11.60423865732019:6.3706518372745995] [-1.5707152468421226:11.197284753263917] [-20.75934991357763:13.521248089994929] [-2.0594912683379647:8.5922350483409478] [-4.476154674581168:7.0613989093962184] [-4.2521761542032044:6.9647266712476545] [-4.7824252609783278:6.8835898872062069] [-4.1874893086637215:6.8905241585489749] [-2.1251139830481023:37.333263457732059] [-4.0791610879916123:6.8526590068401338] [-3.4122723206416516:5.8505466792184597] [-10.22347144419272:12.014789018105828] [-3.4069728118293559:6.2622879556279472] [-3.0696959527564389:5.528375079288824] [-3.3645519668677726:3.0803052260171633] [-8.578342949905819:6.8859110447022589] [-7.9009502578246726:6.6193488602783601] [-12.806128143258036:6.9694653547399179] [-6.3690234074938417:6.9426226291832212] [-2.0778169415859216:8.6163615098084279] [-2.1664338089866755:5.4765151178112577] [-1.7868359381719907:10.812463181002618] [-1.8549637508036687:9.7655657919939181] [-4.3356415993565678:4.5193672580098747] [-2.93201374724014:4.1884633899767314] [-13.395358927588465:14.176307192466238] [-11.740816192740123:12.902992082271329] [-12.187129223713185:12.966911398505987] [-10.480519562017797:13.471828923820874] [-10.517077062005063:13.324072623775493] [-7.8704048404282663:7.4910264028468765] [-5.6387325464724229:8.3088118204417185] [-11.60423865732019:6.3310818765454844] [-1.5199406554232122:11.481061209483975] [-15.129170440232611:12.373504178537676] [-2.0778169415859207:8.6163615098084279] [-4.1168467202738288:6.6968865574289085] [-3.8674858667300618:6.956559251373462] [-4.424421791566111:6.9279068989751398] [-4.4946722900144378:7.1866022007402375] [-2.1251139830481023:37.98354551406721] [-3.966745896638205:6.8801726805017775] [-3.5112493522441057:5.7694774313099506] [-10.795212417361933:10.866643076339161] [-3.3860491162217112:6.3661809833441252] [-3.0862237880198968:5.5181980821936474] [-3.3490181133468808:3.0803052260171633] [-8.719949999612238:6.8072821789419597] [-7.9009502578246726:6.7253238889480791] [-12.608922485004511:6.9966962098910654] [-5.6718364476460144:6.9426226291832212] [-2.1908756819395596:8.6280337262070894] [-2.1770017573967322:5.5051291629654333] [-1.7556214749277732:11.22922119048582] [-1.7977249568620017:9.5371888630754231] [-4.3356415993565678:4.600386321162353] [-2.8869331874059885:4.1868017926543981] [-15.736835443596368:14.459831048489123] [-12.661444833528272:13.284073058516174] [-11.133245817260915:12.738897395759416] [-9.9532336569835014:12.440789645306353] [-9.5411754119417314:13.324072623775493] [-7.8704048404282663:7.5218022483045814] [-5.0879410612956395:10.976752477381686] [-10.428295323051795:6.3637680275243262] [-1.5507992558011909:11.497452556209495] [-21.161818631166881:13.01227780175646] [-2.1908756819395587:8.6280337262070894] [-4.476154674581168:6.8582734544440207] [-4.2521761542032044:6.7564491557885296] [-4.7824252609783278:6.6562908317416154] [-4.1874893086637215:6.4422180203146233] [-2.1251139830481023:37.333263457732059] [-4.0599447930735906:6.764222672932851] [-3.5540310549999905:5.7302903021123095] [-10.795212417361933:9.8134076908053274] [-3.4101376596863537:6.3881494651915887] [-3.100173818181124:5.61430628539709] [-3.38118500484009:3.0803052260171633] [-8.8957409436162003:6.5914579079092981] [-7.9432194905551858:6.7199746734368038] [-12.180725136987864:6.9694653547399179] [-5.5023217400675328:6.9426226291832212] [-2.1908756819395596:8.6280337262070894] [-2.1770017573967322:5.5049950513814405] [-1.7353013855132575:11.481097166115065] [-1.8442302731102025:9.5290879951941054] [-3.9922945415709772:4.600386321162353] [-2.9758743585776686:4.1864077949044827] [-16.288867884655819:30.030201852214748] [-11.971203223149953:22.186404893644415] [-12.859485858829355:18.320953019525845] [-11.719990053471053:16.60357694917521] [-9.5095589180003195:15.156777666964301] [-7.7953772048353587:7.6537875076917947] [-5.3400039058717406:10.976752477381686] [-10.428295323051795:6.3310818765454844] [-1.5507992558011909:11.345251406320132] [-20.75934991357763:25.912431021135305] [-2.1908756819395587:8.6280337262070894] [-4.476154674581168:6.8582734544440207] [-4.2521761542032044:6.7564491557885296] [-4.7824252609783278:6.6562908317416154] [-4.4946722900144378:6.7271230649479454] [-2.0910409398667209:37.98354551406721] [-4.0791610879916123:6.4273217004986449] [-3.5085963810646938:5.8037115114351074] [-10.672350376423633:8.7926859407736515] [-3.4101376596863537:6.190487265679808] [-3.0716151219241681:5.5940824986999367] [-3.2978118442646345:2.9834956700222581] [-8.874106548846207:6.6659517827829875] [-7.9768943782608854:6.4848931029659234] [-12.806128143258036:6.9966962098910654] [-5.6944132501433904:6.5494655615865245] [-2.1908756819395596:8.6513269764907061] [-2.1592776019102797:5.5067674815653929] [-1.795444139875328:11.421681990588892] [-1.8549637508036687:9.7655657919939181] [-4.5856090356324479:3.484666072959651] [-2.8869331874059885:4.2035248410019843] [-14.530409861296228:30.030201852214748] [-14.675011354108323:22.186404893644415] [-13.771236602816394:18.320953019525845] [-11.719990053471053:16.60357694917521] [-11.239845354260678:15.156777666964301] [-7.8704048404282663:7.8157572436374672] [-5.1692331225060935:10.345251241775454] [-10.832526330875304:6.4309648618070261] [-1.5507992558011909:11.250634313082852] [-19.318322457780148:25.912431021135305] [-2.1908756819395587:8.6513269764907044] [-4.1168467202738288:6.8777511650931622] [-3.8674858667300618:6.6843008440107567] [-4.424421791566111:6.4332802730721275] [-4.4946722900144378:6.7271230649479454] [-2.4112320988348519:37.393782796641936] [-4.0599447930735906:6.6794358082538894] [-3.5112493522441057:5.8505466792184597] [-10.342033050540827:7.825654442659447] [-3.4069728118293559:6.0707588690543188] [-3.04352838396498:5.528375079288824] [-3.38118500484009:3.0803052260171633] [-8.5855815897997143:6.7804682755057906] [-8.1133468705332348:6.4394053766351931] [-12.608922485004511:6.2993815452348203] [-5.6600490531661789:6.9426226291832212] [-2.0778169415859216:8.8230483267123052] [-2.2063222235636872:5.508155958865764] [-1.7868359381719907:11.22922119048582] [-1.7491285853902816:9.5290879951941054] [-4.0011006174046715:3.5471321160286355] [-2.93201374724014:4.1826931398986327] [-13.439289238449405:30.030201852214748] [-11.40319413674718:22.186404893644415] [-13.771236602816394:18.320953019525845] [-11.304488258934835:16.60357694917521] [-11.239845354260678:15.156777666964301] [-7.7953772048353587:10.419010295019758] [-5.2355195417838596:9.4713174295185709] [-10.409782006295268:6.3296064536018717] [-1.5282930015714458:11.197284753263917] [-17.465826495331822:25.912431021135305] [-2.0778169415859207:8.8230483267123034] [-3.9210788047204259:7.0613989093962184] [-3.8348245601740278:6.9647266712476545] [-3.9955277052493252:6.8835898872062069] [-4.0356904042842077:6.8905241585489749] [-2.1251139830481023:37.582131699068597] [-4.0791610879916123:6.8526590068401338] [-3.5540310549999905:5.7694774313099506] [-10.342033050540827:10.049364856911065] [-3.4101376596863537:6.2622879556279472] [-3.0135582717190368:5.3784349737259518] [-3.2897211262819179:3.0803052260171633] [-8.5153120062798244:6.8859110447022589] [-8.1813676710170213:6.6193488602783601] [-12.448744381815521:6.7928634591574086] [-5.6658899694084282:5.9843643239992739] [-2.1908756819395596:8.8443650957113338] [-2.228354737437138:5.4643228750778494] [-1.7556214749277732:11.481097166115065] [-1.6894696831657336:9.2547772912523509] [-3.9922945415709772:3.8630543646041304] [-2.8264840530487034:4.1884486549070408] [-14.352172100317439:30.030201852214748] [-10.738376672570011:22.186404893644415] [-12.859485858829355:18.320953019525845] [-11.719990053471053:16.60357694917521] [-9.8263999285678416:15.156777666964301] [-7.760894734451445:11.071037743631733] [-5.6387325464724229:8.1340874136413799] [-10.613233410955983:6.4309648618070261] [-1.5518695472756205:11.481061209483975] [-16.078365293431347:25.912431021135305] [-2.1908756819395587:8.8443650957113338] [-3.7563466512799337:7.0613989093962184] [-3.8348245601740278:6.9647266712476545] [-3.9955277052493252:6.9279068989751398] [-3.9866843295561751:7.1866022007402375] [-2.1361719141003741:37.98354551406721] [-4.0791610879916123:6.8801726805017775] [-3.5540310549999905:5.6460161417325283] [-10.235613908990929:12.014789018105828] [-3.4069728118293559:6.3661809833441252] [-3.0109265760733339:5.5181980821936474] [-3.2906862645522339:3.0803052260171633] [-8.719949999612238:6.8859110447022589] [-7.9836294159738639:6.7253238889480791] [-12.523167727496576:6.4161390544491468] [-5.2009791192115324:6.415157423361733] [-2.1908756819395596:8.8443650957113338] [-2.1770017573967322:5.4810494871991162] [-1.7347260858030855:11.421681990588892] [-1.7834080691218386:9.2547772912523509] [-3.7445687745578908:3.4868170059572265] [-2.93201374724014:4.1884633899770396] [-13.694519275821524:14.738104330719741] [-11.036276087646282:21.600678958379273] [-12.187129223713185:18.035154492283791] [-10.322417526762569:15.894141460760855] [-10.517077062005063:14.954068249813659] [-7.8704048404282663:11.071037743631733] [-5.0879410612956395:10.976752477381686] [-9.9607717722015749:6.3214558932749103] [-1.5507992558011909:11.238021921687222] [-18.712233536375088:13.521248089994929] [-2.1908756819395587:8.8443650957113338] [-3.7364048282481903:6.8777511650931622] [-3.5307978446453681:6.956559251373462] [-3.7205935240812305:6.9279068989751398] [-3.5378073194426425:7.1866022007402375] [-2.4112320988348519:36.313170441674039] [-3.966745896638205:6.8801726805017775] [-3.5112493522441057:5.7302903021123095] [-10.729870645522436:12.014789018105828] [-3.3860491162217112:6.3881494651915887] [-3.0201094798805483:5.61430628539709] [-3.2978118442646345:3.0803052260171633] [-8.8957409436162003:6.7804682755057906] [-7.9768943782608854:6.7253238889480791] [-12.806128143258036:6.2780199187384786] [-5.5023217400675328:6.6913456732676186] [-2.0778169415859216:8.7810179291062145] [-2.148475708149042:5.4697393274513404] [-1.7402792471097535:10.763373685386451] [-1.8442302731102025:9.2547772912523509] [-3.7532805606214148:3.6385139913367586] [-2.8869331874059885:4.1884633899767314] [-15.736835443596368:15.371384430568762] [-12.661444833528272:18.043662960664655] [-13.771236602816394:17.480039114121706] [-10.786763771017238:15.576709418915033] [-11.239845354260678:14.253262729827403] [-7.7953772048353587:11.071037743631733] [-5.2598060308817232:10.345251241775454] [-10.832526330875304:6.3382213284573865] [-1.5622893907466608:11.121687206757478] [-21.161818631166881:13.692335380737477] [-2.0778169415859207:8.7810179291062127] [-3.8175605004581348:7.0613989093962184] [-3.6788310694717659:6.9647266712476545] [-3.86063438795192:6.8835898872062069] [-3.8033779745688321:6.8905241585489749] [-2.0600297763753299:37.582131699068597] [-3.6921930637641989:6.8526590068401338] [-3.5540310549999905:5.8037115114351074] [-10.276316619509839:12.014789018105828] [-3.3308367754462807:6.3881494651915887] [-3.0409870361911402:5.61430628539709] [-3.38118500484009:3.0803052260171633] [-8.874106548846207:6.8859110447022589] [-7.9539009960611837:6.7199746734368038] [-12.608922485004511:6.4287211750648927] [-5.6658899694084282:6.9426226291832212] [-2.1908756819395596:8.6089072519612113] [-2.2144429191216148:5.4643228750778494] [-1.7399396163983749:10.931223676927818] [-1.8549637508036687:9.7655657919939181] [-3.7532805606214148:3.5471321160286355] [-2.9119115510503923:4.1884633899770396] [-15.736835443596368:15.241324198957015] [-12.661444833528272:12.148930049647943] [-11.514721727000572:15.545115481049633] [-10.69068108873217:15.136477025858319] [-9.5825227925264382:14.004243048077042] [-7.8704048404282663:10.419010295019758] [-5.302750701892041:9.4713174295185709] [-10.409782006295268:6.4274644352396901] [-1.5773198107315967:11.497452556209495] [-21.161818631166881:13.02458424412573] [-2.1908756819395587:8.6089072519612113] [-3.7375019220751686:6.6968865574289085] [-3.7547142194999923:6.956559251373462] [-3.6928531903619675:6.9279068989751398] [-3.7037389438525019:7.1866022007402375] [-2.4112320988348519:37.393782796641936] [-3.4983788892041869:6.8801726805017775] [-3.5085963810646938:5.8505466792184597] [-10.22347144419272:12.014789018105828] [-3.4101376596863537:6.3661809833441252] [-3.0696959527564389:5.5940824986999367] [-3.3645519668677726:3.0803052260171633] [-8.5855815897997143:6.7077668602944449] [-8.1133468705332348:6.7253238889480791] [-12.007762827778336:7.1267241390343585] [-5.9480982996590663:6.6913456732676186] [-2.0763066417427858:8.6089072519612113] [-2.4608218983590699:5.5051291629654333] [-1.7402792471097535:10.874380988416165] [-1.8549637508036687:9.3523125236484024] [-3.7396107637322413:3.8630543646041304] [-2.8948591150648779:4.2035248410019843] [-16.288867884655819:30.030201852214748] [-11.971203223149953:22.186404893644415] [-13.771236602816394:18.320953019525845] [-10.786763771017238:16.60357694917521] [-11.239845354260678:15.156777666964301] [-7.7953772048353587:11.071037743631733] [-5.6387325464724229:8.1340874136413799] [-10.613233410955983:6.515773592383014] [-1.5780385444716019:11.497452556209495] [-20.75934991357763:25.912431021135305] [-2.0763066417427858:8.6089072519612113] [-3.6847183858229684:6.2836788673831254] [-3.5307978446453681:6.1860674600169734] [-3.7237336644213856:6.0558772857858338] [-3.5390366862821665:6.0735176250281349] [-1.9239259759090719:38.763065317104733] [-3.5442482047196928:6.764222672932851] [-3.5076600743439292:5.8505466792184597] [-10.235613908990929:10.866643076339161] [-3.4069728118293559:6.3881494651915887] [-3.0862237880198968:5.61430628539709] [-3.3490181133468808:3.0803052260171633] [-8.719949999612238:6.2850153627479868] [-8.1813676710170213:6.7199746734368038] [-11.274268034706068:6.4963602210291143] [-6.3690234074938417:6.1563084939898287] [-2.2661851969107456:8.6280337262070894] [-2.4677436498107257:5.5049950513814405] [-1.7399396163983749:10.542023164950148] [-1.8549637508036687:9.5371888630754231] [-3.6708647794388747:3.8630543646041304] [-2.8264840530487034:4.1884633899767314] [-16.036208528177525:16.821837993400774] [-12.448021637359579:21.600678958379273] [-13.771236602816394:18.035154492283791] [-10.786763771017238:15.894141460760855] [-11.239845354260678:14.954068249813659] [-7.6508524644172526:9.9058216917879669] [-5.3400039058717406:7.6355413862872652] [-10.289408615690482:6.4451798131712872] [-1.6557209876296652:11.497452556209495] [-19.318322457780148:14.636381687290632] [-2.2661851969107456:8.6280337262070894] [-3.6773530173070084:6.5605415214293021] [-3.6788310694717659:6.4733001628712996] [-3.7499577198867176:6.3546541962768526] [-3.6877601063963072:6.218763396734281] [-1.9672216816558907:38.763065317104733] [-3.5373319888628081:6.4236719099765214] [-3.5112493522441057:5.8037115114351074] [-10.729870645522436:9.8134076908053274] [-3.3860491162217112:6.190487265679808] [-3.100173818181124:5.5940824986999367] [-3.2978118442646345:3.0803052260171633] [-8.8957409436162003:6.2463146208546334] [-7.9836294159738639:6.4848931029659234] [-12.180725136987864:6.5072300325616945] [-5.9480982996590663:6.5494655615865245] [-2.2549241582959212:8.6252865751728507] [-2.1664665577463604:5.5067674815653929] [-1.7347260858030855:10.407153302882099] [-1.8442302731102025:9.7655657919939181] [-3.7532805606214148:3.5865446192707728] [-2.93201374724014:4.2035248410019843] [-15.736835443596368:17.950617253972514] [-12.661444833528272:13.923290179228424] [-12.859485858829355:17.480039114121706] [-11.719990053471053:15.576709418915033] [-10.517077062005063:14.253262729827403] [-7.760894734451445:10.419010295019758] [-5.6387325464724229:7.7446345135657424] [-10.613233410955983:6.515773592383014] [-1.6513707769367687:11.497452556209495] [-21.161818631166881:13.387048788357642] [-2.2549241582959212:8.6252865751728489] [-3.7375019220751686:6.8582734544440207] [-3.7547142194999923:6.7564491557885296] [-3.6928531903619675:6.6562908317416154] [-3.7037389438525019:6.4422180203146233] [-1.9393394805104407:38.763065317104733] [-3.4983788892041869:6.1957022819501306] [-3.5540310549999905:5.8505466792184597] [-10.276316619509839:10.049364856911065] [-3.4101376596863537:5.9302068241943031] [-3.0862237880198968:5.528375079288824] [-3.38118500484009:3.0658883219639468] [-8.874106548846207:6.5914579079092981] [-7.8272842954142234:6.0411118212303831] [-12.806128143258036:6.7724178009313079] [-6.3690234074938417:6.9426226291832212] [-2.1979134934686972:8.6513269764907061] [-2.2144429191216148:5.508155958865764] [-1.7402792471097535:10.763373685386451] [-1.8549637508036687:9.7655657919939181] [-3.7445687745578908:4.0545978658001562] [-2.8948591150648779:4.1884633899767314] [-14.530409861296228:16.821837993400774] [-11.772757775311929:14.051152642919471] [-11.133245817260915:13.157608591742024] [-10.69068108873217:15.136477025858319] [-9.5825227925264382:14.004243048077042] [-7.6508524644172526:11.071037743631733] [-5.3400039058717406:8.6491832048304289] [-9.9772038824332299:6.4309648618070261] [-1.6288501449853396:11.345251406320132] [-19.318322457780148:14.636381687290632] [-2.1979134934686972:8.6513269764907044] [-3.6847183858229684:6.6161925781935418] [-3.6788310694717659:6.495081333980349] [-3.7499577198867176:6.4232734169950474] [-3.6877601063963072:6.7271230649479454] [-2.0295889909848772:39.561296675869983] [-3.5442482047196928:6.4273217004986449] [-3.5085963810646938:5.7694774313099506] [-10.729870645522436:12.014789018105828] [-3.4069728118293559:5.8790419683700064] [-3.100173818181124:5.2898117318501523] [-3.3645519668677726:3.0658883219639468] [-8.8957409436162003:6.6659517827829875] [-8.1133468705332348:6.242576089563495] [-12.806128143258036:6.9614652493306224] [-6.3690234074938417:6.2901769985755189] [-2.2661851969107456:8.8230483267123052] [-2.4608218983590699:5.5049950513814405] [-1.7399396163983749:10.931223676927818] [-1.8549637508036687:9.7655657919939181] [-4.5856090356324479:4.5193672580098747] [-2.8969040172447378:4.1826931398986327] [-15.155663380653127:17.246038362262926] [-12.448021637359579:13.452913167404873] [-13.771236602816394:15.545115481049633] [-11.719990053471053:10.39826565644292] [-11.239845354260678:13.194396174054969] [-7.760894734451445:9.9058216917879669] [-5.6387325464724229:7.6238091951444931] [-10.832526330875304:6.4451798131712872] [-1.6557209876296652:11.192231783505934] [-17.341674444431273:14.965301608790906] [-2.2661851969107456:8.8230483267123034] [-3.7375019220751686:6.8777511650931622] [-3.7547142194999923:6.6843008440107567] [-3.7499577198867176:6.4332802730721275] [-3.7037389438525019:6.3807675992616444] [-2.1251139830481023:39.561296675869983] [-3.5373319888628081:6.6794358082538894] [-3.5112493522441057:5.6460161417325283] [-10.276316619509839:10.866643076339161] [-3.4101376596863537:6.0707588690543188] [-3.0716151219241681:5.1957630865962292] [-3.3490181133468808:2.9591502212204532] [-8.874106548846207:6.7804682755057906] [-8.1813676710170213:6.4394053766351931] [-12.608922485004511:6.9694653547399179] [-5.6944132501433904:6.6913456732676186] [-2.2266217720314656:8.8443650957113338] [-2.4677436498107257:5.5067674815653929] [-1.7386355700518388:10.812463181002618] [-1.8442302731102025:9.5371888630754231] [-4.0011006174046715:4.5193672580098747] [-2.9119115510503923:4.1884486549070408] [-13.260226551619063:30.030201852214748] [-11.298299609258132:22.186404893644415] [-10.488621596232067:18.320953019525845] [-10.480519562017797:16.60357694917521] [-9.8263999285678416:15.156777666964301] [-7.8704048404282663:8.0981584793112553] [-5.2355195417838596:9.1393959649225476] [-10.409782006295268:6.4946936751372295] [-1.6402943906295715:11.192231783505934] [-17.058689358032368:25.912431021135305] [-2.2266217720314656:8.8443650957113338] [-3.9927005566632467:7.0613989093962184] [-3.7547142194999923:6.9647266712476545] [-3.956536533775997:6.8835898872062069] [-3.7037389438525019:6.8905241585489749] [-2.1251139830481023:38.763065317104733] [-3.5442482047196928:6.8526590068401338] [-3.5540310549999905:5.530931264783006] [-10.729870645522436:9.8134076908053274] [-3.4101376596863537:6.2622879556279472] [-3.0696959527564389:5.3784349737259518] [-3.2978118442646345:2.9606759275196302] [-8.8957409436162003:6.8859110447022589] [-8.1133468705332348:6.6193488602783601] [-12.806128143258036:7.1267241390343585] [-5.6944132501433904:6.9426226291832212] [-2.2549241582959212:8.7810179291062145] [-2.1571722471022596:5.508155958865764] [-1.7386355700518388:11.22922119048582] [-1.8549637508036687:9.5290879951941054] [-4.0547750350653162:4.600386321162353] [-2.9758743585776686:4.2035248410019843] [-15.736835443596368:15.371384430568762] [-14.675011354108323:21.600678958379273] [-13.771236602816394:18.035154492283791] [-10.786763771017238:15.894141460760855] [-11.239845354260678:14.954068249813659] [-7.8704048404282663:7.9002324826687262] [-5.6387325464724229:10.976752477381686] [-10.613233410955983:6.4946936751372295] [-1.6513707769367687:11.22587480285422] [-21.161818631166881:13.692335380737477] [-2.2549241582959212:8.7810179291062127] [-4.476154674581168:6.6968865574289085] [-4.2521761542032044:6.956559251373462] [-4.7824252609783278:6.9279068989751398] [-4.1874893086637215:7.1866022007402375] [-2.0910409398667209:38.763065317104733] [-3.6011557875220404:6.8801726805017775] [-3.5112493522441057:5.5938637656412888] [-10.276316619509839:8.7926859407736515] [-3.4069728118293559:6.3661809833441252] [-3.0862237880198968:5.5181980821936474] [-3.38118500484009:2.9818142519645687] [-8.874106548846207:6.7077668602944449] [-8.1813676710170213:6.7253238889480791] [-12.608922485004511:6.7928634591574086] [-5.6600490531661789:6.1563084939898287] [-2.2661851969107456:8.6280337262070894] [-2.1664665577463604:5.5067674815653929] [-1.7294188637939063:11.481097166115065] [-1.7907810479551147:9.7655657919939181] [-3.8337686857288893:4.600386321162353] [-2.8264840530487034:4.1866989757659718] [-13.49578523030644:17.246038362262926] [-10.989766839815774:12.148930049647943] [-13.432264153381981:17.480039114121706] [-11.304488258934835:15.576709418915033] [-9.5095589180003195:14.253262729827403] [-7.8704048404282663:7.6537875076917947] [-5.6387325464724229:10.345251241775454] [-10.613233410955983:6.4274644352396901] [-1.6557209876296652:11.250634313082852] [-17.465826495331822:14.965301608790906] [-2.2661851969107456:8.6280337262070894] [-4.476154674581168:6.2836788673831254] [-4.2521761542032044:6.1860674600169734] [-4.7824252609783278:6.0558772857858338] [-4.4946722900144378:6.0735176250281349] [-2.0912877019213236:37.98354551406721] [-3.7786661629514313:6.764222672932851] [-3.5540310549999905:5.7302903021123095] [-10.729870645522436:10.049364856911065] [-3.3860491162217112:6.3881494651915887] [-3.100173818181124:5.61430628539709] [-3.38118500484009:2.9823321980215884] [-8.8957409436162003:6.2850153627479868] [-8.1133468705332348:6.7199746734368038] [-11.908421389511537:6.3297470012465613] [-5.527173191824291:6.5494655615865245] [-2.2266217720314656:8.6513269764907061] [-2.2063222235636872:5.508155958865764] [-1.7353013855132575:11.481097166115065] [-1.7977249568620017:9.5290879951941054] [-3.6930902254373268:3.5164998813237682] [-2.9119115510503923:4.2035248410019843] [-16.288867884655819:15.371384430568762] [-12.661444833528272:18.043662960664655] [-11.201196616971165:13.157608591742024] [-10.69068108873217:15.136477025858319] [-9.7445075198431894:14.004243048077042] [-7.7953772048353587:8.0730390287338061] [-5.3400039058717406:9.4713174295185709] [-10.330476117167773:6.515773592383014] [-1.6402943906295715:11.197284753263917] [-21.161818631166881:13.692335380737477] [-2.2266217720314656:8.6513269764907044] [-4.1168467202738288:6.2029848881477587] [-3.8674858667300618:6.1588420347140636] [-4.424421791566111:5.8057047931933399] [-4.4946722900144378:6.1782620797235168] [-2.0912877019213236:37.004168529920619] [-4.0599447930735906:6.4236719099765214] [-3.5540310549999905:5.8037115114351074] [-10.729870645522436:12.014789018105828] [-3.3087544383511434:6.190487265679808] [-3.0862237880198968:5.5940824986999367] [-3.3590955282641044:2.9823321980215884] [-8.8957409436162003:5.9067468335477367] [-8.1813676710170213:6.4848931029659234] [-11.176606484874021:6.5072300325616945] [-5.9480982996590663:6.9426226291832212] [-2.2661851969107456:8.8230483267123052] [-2.228354737437138:5.5067674815653929] [-1.7347260858030855:11.421681990588892] [-1.7977249568620017:9.244057651651401] [-4.3356415993565678:3.6385139913367586] [-2.6881102312690395:4.1884633899575086] [-15.148472464161827:17.246038362262926] [-11.740816192740123:12.6416243126135] [-12.859485858829355:15.545115481049633] [-11.719990053471053:15.043081770831945] [-9.8263999285678416:13.324072623775493] [-7.6508524644172526:7.5786726360033496] [-5.3400039058717406:8.1340874136413799] [-11.60423865732019:6.515773592383014] [-1.6557209876296652:11.497452556209495] [-17.35720986345061:14.965301608790906] [-2.2661851969107456:8.8230483267123034] [-3.9210788047204259:6.5605415214293021] [-3.8348245601740278:6.4733001628712996] [-3.9955277052493252:6.3546541962768526] [-4.0356904042842077:6.218763396734281] [-2.4112320988348519:39.561296675869983] [-4.0791610879916123:5.9127055207963242] [-3.5085963810646938:5.8505466792184597] [-10.342033050540827:10.866643076339161] [-3.1725032779227278:5.9302068241943031] [-3.100173818181124:5.528375079288824] [-3.38118500484009:3.0658883219639468] [-8.874106548846207:6.2463146208546334] [-8.1133468705332348:6.0411118212303831] [-9.8220704417136364:7.1267241390343585] [-6.3690234074938417:6.5494655615865245] [-2.2661851969107456:8.8443650957113338] [-2.228354737437138:5.508155958865764] [-1.7402792471097535:10.874380988416165] [-1.7977249568620017:9.244057651651401] [-4.0547750350653162:3.484666072959651] [-2.8969040172447378:4.1884633899770396] [-16.288867884655819:30.030201852214748] [-12.448021637359579:22.186404893644415] [-12.859485858829355:18.320953019525845] [-11.719990053471053:16.60357694917521] [-9.26688299121653:15.156777666964301] [-7.6508524644172526:7.6537875076917947] [-5.3400039058717406:9.1393959649225476] [-10.409782006295268:6.515773592383014] [-1.6557209876296652:11.497452556209495] [-20.75934991357763:25.912431021135305] [-2.2661851969107456:8.8443650957113338] [-3.7563466512799337:6.8582734544440207] [-3.8348245601740278:6.7564491557885296] [-3.9955277052493252:6.6562908317416154] [-3.9866843295561751:6.4422180203146233] [-2.4112320988348519:38.763065317104733] [-4.0791610879916123:6.1957022819501306] [-3.5076600743439292:5.7694774313099506] [-10.795212417361933:9.8134076908053274] [-3.1279838115703518:5.7017969596327189] [-3.0862237880198968:5.2898117318501523] [-3.2741387065877099:2.9805366643309079] [-8.7042606583966204:6.5914579079092981] [-8.1813676710170213:6.0270576584791131] [-9.7106179441543397:6.4963602210291143] [-6.3690234074938417:6.9426226291832212] [-2.2661851969107456:8.8443650957113338] [-2.1590448266716149:5.5067674815653929] [-1.7556214749277732:11.22922119048582] [-1.7977249568620017:8.9706963282597432] [-4.0547750350653162:3.5471321160286355] [-2.7815426389584927:4.1883858575881261] [-16.036208528177525:30.030201852214748] [-15.339653803058468:22.186404893644415] [-12.969215232718046:18.320953019525845] [-10.857462243929739:16.60357694917521] [-9.6144686597647873:15.156777666964301] [-7.4210313608549283:9.9058216917879669] [-5.2432257339479262:9.1393959649225476] [-10.428295323051795:6.515773592383014] [-1.6557209876296652:11.345251406320132] [-18.90794532881042:25.912431021135305] [-2.2661851969107456:8.8443650957113338] [-3.9927005566632467:6.6161925781935418] [-3.6678828981676559:6.495081333980349] [-3.956536533775997:6.4232734169950474] [-3.6006119325229506:6.7271230649479454] [-2.1251139830481023:39.561296675869983] [-3.966745896638205:6.4273217004986449] [-3.4441899910027551:5.6460161417325283] [-10.672350376423633:8.7926859407736515] [-3.1395436138483017:5.8790419683700064] [-3.100173818181124:5.0614071333440851] [-3.2751409009422705:3.0658883219639468] [-8.7124817508288999:6.6659517827829875] [-8.1813676710170213:6.242576089563495] [-12.180725136987864:6.4161390544491468] [-5.6944132501433904:6.9426226291832212] [-2.2438726375207221:8.7810179291062145] [-2.2089364690328912:5.508155958865764] [-1.7124776488628737:11.481097166115065] [-1.7907810479551147:9.244057651651401] [-4.0547750350653162:3.8630543646041304] [-2.9119115510503923:4.2035248410019843] [-15.155663380653127:16.821837993400774] [-12.448021637359579:21.600678958379273] [-12.201038120606174:18.035154492283791] [-11.042159608440789:15.894141460760855] [-9.6157871464488185:14.954068249813659] [-7.6508524644172526:7.3626404840201971] [-5.3400039058717406:8.6491832048304289] [-10.940952498932303:6.3706518372745995] [-1.6470700141524921:11.238021921687222] [-19.318322457780148:14.636381687290632] [-2.2438726375207221:8.7810179291062127] [-4.476154674581168:6.8777511650931622] [-4.2521761542032044:6.6843008440107567] [-4.7824252609783278:6.4332802730721275] [-4.1874893086637215:6.3807675992616444] [-2.1251139830481023:37.98354551406721] [-3.6921930637641989:6.6794358082538894] [-3.3804452751993987:5.530931264783006] [-9.6597068060248823:10.049364856911065] [-3.1430959639945177:6.0707588690543188] [-3.100173818181124:5.1957630865962292] [-3.3645519668677726:3.0658883219639468] [-8.2614204467927497:6.7804682755057906] [-7.9836294159738639:6.4394053766351931] [-12.806128143258036:6.2576539278802557] [-5.6718364476460144:6.415157423361733] [-2.2438726375207221:8.8230483267123052] [-2.228354737437138:5.468241907143832] [-1.7294188637939063:11.421681990588892] [-1.8442302731102025:9.2547772912523509] [-4.0547750350653162:3.8630543646041304] [-2.9758743585776686:4.1884633899767314] [-12.694415603786936:30.030201852214748] [-15.339653803058468:22.186404893644415] [-12.969215232718046:18.320953019525845] [-10.857462243929739:16.60357694917521] [-10.517077062005063:15.156777666964301] [-7.4700587645188534:7.8157572436374672] [-5.2432257339479262:9.1393959649225476] [-10.447211282850134:6.2601696313583624] [-1.6470700141524921:11.497452556209495] [-15.129170440232611:25.912431021135305] [-2.2438726375207221:8.8230483267123034] [-4.1168467202738288:7.0613989093962184] [-3.8674858667300618:6.9647266712476545] [-4.424421791566111:6.8835898872062069] [-4.4946722900144378:6.8905241585489749] [-2.4112320988348519:38.952508636057651] [-3.7786661629514313:6.8526590068401338] [-3.2969777916254661:5.4528483949045619] [-10.22347144419272:12.014789018105828] [-3.1430959639945177:6.2622879556279472] [-3.0716151219241681:5.3784349737259518] [-3.3490181133468808:3.0658883219639468] [-8.5153120062798244:6.8859110447022589] [-7.9009502578246726:6.6193488602783601] [-12.608922485004511:6.4817870080641899] [-5.6944132501433904:6.2901769985755189] [-2.2438726375207221:8.8443650957113338] [-2.1571722471022596:5.5051291629654333] [-1.7353013855132575:10.643921498142895] [-1.8549637508036687:8.9845295042491138] [-4.5856090356324479:4.0545978658001562] [-2.8969040172447378:4.2035248410019843] [-16.288867884655819:17.950617253972514] [-11.971203223149953:21.600678958379273] [-13.432264153381981:18.035154492283791] [-11.304488258934835:15.894141460760855] [-9.6157871464488185:14.954068249813659] [-7.760894734451445:10.419010295019758] [-5.6387325464724229:7.7446345135657424] [-10.613233410955983:6.4309648618070261] [-1.6470700141524921:11.345251406320132] [-20.75934991357763:13.692335380737477] [-2.2438726375207221:8.8443650957113338] [-3.9927005566632467:6.6968865574289085] [-3.6678828981676559:6.956559251373462] [-3.956536533775997:6.9279068989751398] [-4.0356904042842077:7.1866022007402375] [-2.1361719141003741:39.561296675869983] [-4.0599447930735906:6.8801726805017775] [-3.2219668415454858:5.5938637656412888] [-10.342033050540827:12.014789018105828] [-3.1209995392866059:6.3661809833441252] [-3.04352838396498:5.5181980821936474] [-3.2581068474142354:3.008809910432225] [-8.719949999612238:6.8072821789419597] [-7.8421375971854301:6.7253238889480791] [-11.908421389511537:6.7928634591574086] [-5.9480982996590663:6.6913456732676186] [-2.1908756819395596:8.8230483267123052] [-2.2089364690328912:5.5049950513814405] [-1.7353013855132575:10.812463181002618] [-1.8442302731102025:9.2547772912523509] [-4.0298317211173211:4.5193672580098747] [-2.9758743585776686:4.1884486549070408] [-14.530409861296228:15.371384430568762] [-14.675011354108323:18.043662960664655] [-12.859485858829355:17.480039114121706] [-11.719990053471053:15.576709418915033] [-10.517077062005063:14.253262729827403] [-7.8704048404282663:11.071037743631733] [-5.2432257339479262:10.976752477381686] [-11.60423865732019:6.515773592383014] [-1.5507992558011909:11.080880393739575] [-19.318322457780148:13.692335380737477] [-2.1908756819395587:8.8230483267123034] [-4.476154674581168:6.8777511650931622] [-4.2521761542032044:6.6843008440107567] [-4.7824252609783278:6.4332802730721275] [-4.1874893086637215:6.3807675992616444] [-2.1251139830481023:37.98354551406721] [-4.0791610879916123:6.764222672932851] [-3.173739137085092:5.7302903021123095] [-10.729870645522436:10.866643076339161] [-3.1495066533524652:6.3881494651915887] [-3.0409870361911402:5.61430628539709] [-3.2751409009422705:3.0658883219639468] [-8.8957409436162003:6.7804682755057906] [-7.7203944900623531:6.7199746734368038] [-11.176606484874021:6.6290141367720539] [-6.3690234074938417:6.415157423361733] [-2.040346135091744:8.8443650957113338] [-2.1669660341331731:5.5067674815653929] [-1.7402792471097535:11.22922119048582] [-1.8549637508036687:9.5371888630754231] [-4.5856090356324479:4.5193672580098747] [-3.0642677235529128:4.2035248410019843] [-16.036208528177525:17.246038362262926] [-12.661444833528272:14.051152642919471] [-13.432264153381981:13.849111467030262] [-11.304488258934835:15.136477025858319] [-9.7445075198431894:14.004243048077042] [-7.7953772048353587:7.8157572436374672] [-5.2598060308817232:10.345251241775454] [-10.940952498932303:6.4051237694387089] [-1.5622893907466608:11.238021921687222] [-21.161818631166881:14.965301608790906] [-2.040346135091744:8.8443650957113338] [-4.1168467202738288:7.0613989093962184] [-3.8674858667300618:6.9647266712476545] [-4.424421791566111:6.8835898872062069] [-4.4946722900144378:6.8905241585489749] [-2.1361719141003741:39.561296675869983] [-3.966745896638205:6.8526590068401338] [-3.1385525349988828:5.8037115114351074] [-10.795212417361933:12.014789018105828] [-3.2483579943249379:6.2622879556279472] [-3.0696959527564389:5.5940824986999367] [-3.3590955282641044:2.9834956700222581] [-8.874106548846207:6.8859110447022589] [-7.8272842954142234:6.6193488602783601] [-10.13643394184475:7.3345976601153469] [-5.4897370450854677:6.6913456732676186] [-2.0778169415859216:8.8443650957113338] [-2.1664338089866755:5.508155958865764] [-1.795444139875328:11.481097166115065] [-1.7834080691218386:9.5290879951941054] [-4.3356415993565678:4.600386321162353] [-2.8969040172447378:4.1884633899770396] [-16.288867884655819:17.246038362262926] [-15.339653803058468:18.043662960664655] [-13.771236602816394:15.545115481049633] [-10.857462243929739:12.751310827031441] [-11.239845354260678:13.324072623775493] [-7.6106888372473795:10.419010295019758] [-5.302750701892041:9.4713174295185709] [-11.60423865732019:6.3637680275243262] [-1.5773198107315967:11.250634313082852] [-20.75934991357763:14.965301608790906] [-2.0778169415859207:8.8443650957113338] [-3.9210788047204259:6.6968865574289085] [-3.6788310694717659:6.956559251373462] [-3.9116394922222644:6.9279068989751398] [-4.0356904042842077:7.1866022007402375] [-2.4112320988348519:39.561296675869983] [-4.0599447930735906:6.8801726805017775] [-3.1385724590572783:5.8505466792184597] [-10.672350376423633:10.866643076339161] [-3.3308367754462807:6.3661809833441252] [-3.0862237880198968:5.528375079288824] [-3.3645519668677726:3.0803052260171633] [-8.7124817508288999:6.7077668602944449] [-8.1133468705332348:6.7253238889480791] [-9.7379655483135767:7.3568747684833156] [-5.6600490531661789:5.8765542776480997] [-2.2549241582959212:8.7810179291062145] [-2.1770017573967322:5.4657584909949044] [-1.7868359381719907:11.421681990588892] [-1.8442302731102025:9.5290879951941054] [-4.1091030503204955:4.600386321162353] [-2.9758743585776686:4.1762439945238725] [-13.260226551619063:17.950617253972514] [-11.740816192740123:13.923290179228424] [-12.859485858829355:13.849111467030262] [-11.719990053471053:15.043081770831945] [-9.8263999285678416:13.069949660473403] [-7.760894734451445:11.071037743631733] [-5.6387325464724229:10.976752477381686] [-11.60423865732019:6.4946936751372295] [-1.6513707769367687:11.497452556209495] [-17.058689358032368:14.636381687290632] [-2.2549241582959212:8.7810179291062127] [-3.8175605004581348:6.8777511650931622] [-3.8348245601740278:6.7564491557885296] [-3.9955277052493252:6.6562908317416154] [-3.9866843295561751:6.4422180203146233] [-2.4112320988348519:38.952508636057651] [-4.0791610879916123:6.764222672932851] [-3.3013230091663281:5.7694774313099506] [-10.795212417361933:9.8134076908053274] [-3.4101376596863537:6.3881494651915887] [-3.100173818181124:5.61430628539709] [-3.3645519668677726:3.0803052260171633] [-8.719949999612238:6.8072821789419597] [-8.1813676710170213:6.7199746734368038] [-10.563931889660022:6.9614652493306224] [-5.6146521462170389:6.004691277496919] [-2.2661851969107456:8.8230483267123052] [-2.1590448266716149:5.4810494871991162] [-1.7347260858030855:10.794461966528576] [-1.8549637508036687:9.5290879951941054] [-4.1091030503204955:4.600386321162353] [-2.8948591150648779:4.1884633899767314] [-16.288867884655819:17.950617253972514] [-11.971203223149953:18.043662960664655] [-11.514721727000572:13.888007393270085] [-10.432577272530748:15.043081770831945] [-9.8263999285678416:12.811326496206135] [-7.6508524644172526:8.2439540822065833] [-5.3400039058717406:10.345251241775454] [-10.447211282850134:6.4309648618070261] [-1.6557209876296652:11.481061209483975] [-20.75934991357763:14.965301608790906] [-2.2661851969107456:8.8230483267123034] [-3.7375019220751686:7.0613989093962184] [-3.7547142194999923:6.9647266712476545] [-3.6928531903619675:6.8835898872062069] [-3.7037389438525019:6.8905241585489749] [-2.0295889909848772:39.561296675869983] [-3.966745896638205:6.8526590068401338] [-3.4122723206416516:5.8037115114351074] [-10.795212417361933:8.7926859407736515] [-3.4101376596863537:6.2622879556279472] [-3.0716151219241681:5.5940824986999367] [-3.38118500484009:3.0803052260171633] [-8.8957409436162003:6.8859110447022589] [-7.9836294159738639:6.6193488602783601] [-12.180725136987864:7.3345976601153469] [-5.527173191824291:6.2901769985755189] [-2.2266217720314656:8.8443650957113338] [-2.1664338089866755:5.4697393274513404] [-1.7402792471097535:10.399514772581131] [-1.7629409820614792:9.7655657919939181] [-4.1091030503204955:3.9710702917580432] [-2.93201374724014:4.1882060955869855] [-16.288867884655819:15.241324198957015] [-11.971203223149953:13.284073058516174] [-11.136199120678024:13.308217116483936] [-9.9823585377004491:12.334579769170883] [-9.7445075198431894:12.777152401642512] [-7.5829457525486967:8.0730390287338061] [-5.2598060308817232:9.4713174295185709] [-10.428295323051795:6.515773592383014] [-1.6402943906295715:11.003983155673593] [-20.75934991357763:13.387048788357642] [-2.2266217720314656:8.8443650957113338] [-3.6608497548390151:6.8777511650931622] [-3.3330054393875166:6.956559251373462] [-3.5961713673089126:6.9279068989751398] [-3.5390366862821665:7.1866022007402375] [-2.4112320988348519:37.98354551406721] [-3.6921930637641989:6.8801726805017775] [-3.5112493522441057:5.8505466792184597] [-10.672350376423633:7.825654442659447] [-3.4069728118293559:6.3661809833441252] [-3.0862237880198968:5.528375079288824] [-3.3645519668677726:2.9823321980215884] [-8.874106548846207:6.7804682755057906] [-7.9432194905551858:6.7253238889480791] [-12.806128143258036:7.3568747684833156] [-5.9480982996590663:6.6913456732676186] [-2.1979134934686972:8.8230483267123052] [-2.1770017573967322:5.4727791384024309] [-1.795444139875328:10.47967366884202] [-1.8442302731102025:9.3523125236484024] [-4.3356415993565678:4.600386321162353] [-2.8969040172447378:4.2035248410019843] [-15.736835443596368:17.950617253972514] [-12.661444833528272:13.923290179228424] [-11.136199120678024:13.888007393270085] [-10.69068108873217:14.137702319922251] [-9.7445075198431894:11.538614504390869] [-7.4762299958757596:9.9058216917879669] [-5.2355195417838596:9.1393959649225476] [-10.940952498932303:6.4946936751372295] [-1.6288501449853396:11.238021921687222] [-21.161818631166881:13.150328027565292] [-2.1979134934686972:8.8230483267123034] [-3.9927005566632467:7.0613989093962184] [-3.6678828981676559:6.9647266712476545] [-3.956536533775997:6.8835898872062069] [-3.6006119325229506:6.8905241585489749] [-2.0910409398667209:35.582680818228617] [-3.5373319888628081:6.8526590068401338] [-3.5540310549999905:5.7694774313099506] [-10.22347144419272:6.9599572956929947] [-3.3860491162217112:6.3881494651915887] [-3.100173818181124:5.61430628539709] [-3.3645519668677726:3.0658883219639468] [-8.5855815897997143:6.8859110447022589] [-8.1133468705332348:6.7199746734368038] [-12.608922485004511:6.4287211750648927] [-6.3690234074938417:6.2901769985755189] [-2.2438726375207221:8.8443650957113338] [-2.1664338089866755:5.5051291629654333] [-1.7868359381719907:10.604283451339123] [-1.8549637508036687:9.1573982667257656] [-4.5856090356324479:3.8630543646041304] [-2.93201374724014:4.1864077949044827] [-16.036208528177525:17.950617253972514] [-12.448021637359579:13.923290179228424] [-13.771236602816394:13.035117145306145] [-10.786763771017238:14.137702319922251] [-11.239845354260678:12.777152401642512] [-7.8704048404282663:9.9058216917879669] [-5.6387325464724229:7.7870510271110547] [-10.613233410955983:6.4451798131712872] [-1.6470700141524921:11.497452556209495] [-18.90794532881042:13.387048788357642] [-2.2438726375207221:8.8443650957113338] [-4.476154674581168:7.0613989093962184] [-4.2521761542032044:6.9647266712476545] [-4.7824252609783278:6.9279068989751398] [-4.1874893086637215:7.1866022007402375] [-2.0064827418260975:37.582131699068597] [-3.6011557875220404:6.8801726805017775] [-3.5540310549999905:5.8037115114351074] [-10.235613908990929:6.7807790509079053] [-3.3087544383511434:6.3661809833441252] [-3.100173818181124:5.5940824986999367] [-3.38118500484009:3.0803052260171633] [-8.719949999612238:6.8859110447022589] [-8.1813676710170213:6.7253238889480791] [-12.180725136987864:7.1267241390343585] [-5.4897370450854677:6.6913456732676186] [-2.2661851969107456:8.7810179291062145] [-2.2063222235636872:5.5051291629654333] [-1.7336208860138416:10.86122542137651] [-1.7977249568620017:9.0536072274676354] [-4.0547750350653162:3.484666072959651] [-2.9758743585776686:4.1884633899770396] [-15.148472464161827:13.384685767120015] [-11.40319413674718:13.284073058516174] [-13.771236602816394:11.698379174792287] [-10.786763771017238:11.868566156287796] [-11.239845354260678:12.777152401642512] [-7.7953772048353587:9.9058216917879669] [-5.0879410612956395:8.3088118204417185] [-11.60423865732019:6.4946936751372295] [-1.6557209876296652:11.345251406320132] [-17.35720986345061:12.318566626317763] [-2.2661851969107456:8.7810179291062127] [-4.476154674581168:6.8777511650931622] [-4.2521761542032044:6.956559251373462] [-4.7824252609783278:6.9279068989751398] [-4.4946722900144378:7.1866022007402375] [-2.1251139830481023:39.561296675869983] [-3.7786661629514313:6.8801726805017775] [-3.5085963810646938:5.8505466792184597] [-10.729870645522436:6.7095071845253651] [-3.3308367754462807:6.3881494651915887] [-3.0862237880198968:5.61430628539709] [-3.38118500484009:3.0803052260171633] [-8.8957409436162003:6.8072821789419597] [-7.9836294159738639:6.7253238889480791] [-12.806128143258036:7.3345976601153469] [-5.6718364476460144:6.9426226291832212] [-2.2266217720314656:8.5813769757312865] [-2.228354737437138:5.5067674815653929] [-1.795444139875328:10.874380988416165] [-1.8442302731102025:9.1573982667257656] [-4.5856090356324479:3.5471321160286355] [-2.93201374724014:4.1884486549070408] [-16.036208528177525:16.821837993400774] [-11.772757775311929:18.043662960664655] [-12.859485858829355:13.888007393270085] [-11.719990053471053:12.334579769170883] [-10.517077062005063:11.778804187884152] [-7.5829457525486967:9.9058216917879669] [-5.2598060308817232:8.6491832048304289] [-10.330476117167773:6.4946936751372295] [-1.6402943906295715:11.481061209483975] [-18.90794532881042:14.636381687290632] [-2.2266217720314656:8.5813769757312865] [-4.476154674581168:7.0613989093962184] [-4.2521761542032044:6.9647266712476545] [-4.7824252609783278:6.8835898872062069] [-4.4946722900144378:6.8905241585489749] [-2.1251139830481023:39.561296675869983] [-4.0599447930735906:6.8526590068401338] [-3.5076600743439292:5.8037115114351074] [-10.795212417361933:6.8682735133152493] [-3.4101376596863537:6.3881494651915887] [-3.100173818181124:5.61430628539709] [-3.3645519668677726:2.9816047017670924] [-8.874106548846207:6.8859110447022589] [-7.8272842954142234:6.7199746734368038] [-12.608922485004511:7.3568747684833156] [-5.6944132501433904:6.6913456732676186] [-2.1979134934686972:8.6089072519612113] [-2.228354737437138:5.508155958865764] [-1.7868359381719907:10.542023164950148] [-1.8549637508036687:9.0536072274676354] [-4.5856090356324479:3.8630543646041304] [-2.8869331874059885:4.2035248410019843] [-16.036208528177525:17.246038362262926] [-11.772757775311929:14.051152642919471] [-13.771236602816394:13.888007393270085] [-10.786763771017238:12.751310827031441] [-11.239845354260678:13.069949660473403] [-7.5829457525486967:8.0730390287338061] [-5.302750701892041:7.7870510271110547] [-10.832526330875304:6.515773592383014] [-1.6288501449853396:11.497452556209495] [-19.318322457780148:14.965301608790906] [-2.1979134934686972:8.6089072519612113] [-4.1168467202738288:6.6968865574289085] [-3.8674858667300618:6.956559251373462] [-4.424421791566111:6.9279068989751398] [-4.4946722900144378:7.1866022007402375] [-2.0912877019213236:38.952508636057651] [-4.0791610879916123:6.8801726805017775] [-3.4441899910027551:5.8505466792184597] [-10.672350376423633:6.4298162861774486] [-3.4069728118293559:6.3661809833441252] [-3.0716151219241681:5.5940824986999367] [-3.3490181133468808:3.0803052260171633] [-8.7124817508288999:6.7077668602944449] [-8.1133468705332348:6.7253238889480791] [-12.523167727496576:6.7928634591574086] [-5.6658899694084282:6.9426226291832212] [-2.2438726375207221:8.6163615098084279] [-2.2144429191216148:5.508155958865764] [-1.7402792471097535:10.763373685386451] [-1.8549637508036687:9.7655657919939181] [-4.0011863552344584:3.5865446192707728] [-2.93201374724014:4.1670987579555483] [-14.530409861296228:17.950617253972514] [-15.339653803058468:13.923290179228424] [-13.771236602816394:15.545115481049633] [-10.857462243929739:14.137702319922251] [-11.239845354260678:11.520022464960229] [-7.4762299958757596:8.0730390287338061] [-4.9058564571095546:8.6183518355539377] [-10.409782006295268:6.515773592383014] [-1.6470700141524921:11.345251406320132] [-19.318322457780148:13.150328027565292] [-2.2438726375207221:8.6163615098084279] [-3.9210788047204259:6.8582734544440207] [-3.8348245601740278:6.7564491557885296] [-3.9955277052493252:6.6562908317416154] [-4.0356904042842077:6.4422180203146233] [-2.4112320988348519:39.561296675869983] [-4.0791610879916123:6.764222672932851] [-3.5112493522441057:5.8505466792184597] [-10.342033050540827:6.8682735133152493] [-3.3860491162217112:6.3881494651915887] [-3.0696959527564389:5.61430628539709] [-3.2809590528274826:3.0803052260171633] [-8.2614204467927497:6.5914579079092981] [-8.1813676710170213:6.7199746734368038] [-12.806128143258036:6.9614652493306224] [-5.6718364476460144:6.1563084939898287] [-2.2661851969107456:8.6216950197207272] [-2.4608218983590699:5.4810494871991162] [-1.7556214749277732:10.931223676927818] [-1.7389829154179759:9.3523125236484024] [-4.1091030503204955:4.0545978658001562] [-2.7727721772042355:4.1884633899767314] [-15.736835443596368:17.950617253972514] [-12.661444833528272:13.923290179228424] [-12.201038120606174:13.888007393270085] [-11.042159608440789:14.137702319922251] [-10.517077062005063:11.717132857301957] [-7.4762299958757596:7.9002324826687262] [-5.0625794989241912:8.6491832048304289] [-10.940952498932303:6.4946936751372295] [-1.6557209876296652:11.481061209483975] [-21.161818631166881:13.150328027565292] [-2.2661851969107456:8.6216950197207272] [-3.7563466512799337:6.8582734544440207] [-3.8348245601740278:6.7564491557885296] [-3.9955277052493252:6.6562908317416154] [-3.9866843295561751:6.7271230649479454] [-1.9239259759090719:36.817521389328093] [-4.0791610879916123:6.4273217004986449] [-3.5540310549999905:5.8037115114351074] [-9.9288163991792917:6.7095071845253651] [-3.4101376596863537:6.190487265679808] [-3.0862237880198968:5.5940824986999367] [-3.2751409009422705:2.9834956700222581] [-8.2614204467927497:6.6659517827829875] [-7.9836294159738639:6.4848931029659234] [-12.608922485004511:7.3345976601153469] [-5.5023217400675328:6.5494655615865245] [-2.2266217720314656:8.6163615098084279] [-2.4677436498107257:5.4810494871991162] [-1.7386355700518388:10.812463181002618] [-1.7834080691218386:9.1573982667257656] [-4.3356415993565678:4.5193672580098747] [-3.0642677235529128:4.2035248410019843] [-16.036208528177525:17.950617253972514] [-11.772757775311929:13.923290179228424] [-13.771236602816394:13.138023322162232] [-10.786763771017238:14.137702319922251] [-11.239845354260678:12.777152401642512] [-7.6508524644172526:10.419010295019758] [-5.3400039058717406:8.6491832048304289] [-11.60423865732019:6.515773592383014] [-1.6402943906295715:11.497452556209495] [-19.318322457780148:14.636381687290632] [-2.2266217720314656:8.6163615098084279] [-3.6608497548390151:6.8777511650931622] [-3.4029561155464116:6.7564491557885296] [-3.6213030638698172:6.6562908317416154] [-3.5390366862821665:6.7271230649479454] [-2.0109374323544409:39.561296675869983] [-3.966745896638205:6.6794358082538894] [-3.5085963810646938:5.8505466792184597] [-9.939669111448417:6.5990290240645919] [-3.4069728118293559:6.0707588690543188] [-3.100173818181124:5.528375079288824] [-3.2486682222268159:3.008809910432225] [-8.4773278095680809:6.7804682755057906] [-7.8421375971854301:6.4394053766351931] [-12.806128143258036:7.3568747684833156] [-5.2904749835790916:6.9426226291832212] [-2.1979134934686972:8.6216950197207272] [-2.228354737437138:5.4727791384024309] [-1.7096967311574978:11.22922119048582] [-1.7629409820614792:9.0536072274676354] [-4.0011863552344584:3.9710702917580432] [-3.0642677235529128:4.1862262721551504] [-16.036208528177525:15.241324198957015] [-14.675011354108323:13.452913167404873] [-11.566574636496075:13.849111467030262] [-10.480519562017797:15.043081770831945] [-9.4878028217057295:12.811326496206135] [-7.4210313608549283:11.071037743631733] [-5.0572952236587421:8.6183518355539377] [-9.7558695535986946:6.3706518372745995] [-1.6288501449853396:11.345251406320132] [-18.90794532881042:13.02458424412573] [-2.1979134934686972:8.6216950197207272] [-3.9927005566632467:7.0613989093962184] [-3.6678828981676559:6.9647266712476545] [-3.956536533775997:6.8835898872062069] [-3.6006119325229506:6.8905241585489749] [-1.9239259759090719:36.817521389328093] [-3.6921930637641989:6.8526590068401338] [-3.5112493522441057:5.7694774313099506] [-10.795212417361933:6.8682735133152493] [-3.3860491162217112:6.2622879556279472] [-3.0716151219241681:5.3784349737259518] [-3.2741387065877099:3.0658883219639468] [-8.7042606583966204:6.8859110447022589] [-7.7203944900623531:6.6193488602783601] [-12.806128143258036:6.6290141367720539] [-5.6944132501433904:6.415157423361733] [-2.2549241582959212:8.6252865751728507] [-2.2144429191216148:5.4765151178112577] [-1.7293432042309147:11.481097166115065] [-1.8442302731102025:9.2547772912523509] [-4.1091030503204955:4.600386321162353] [-3.0642677235529128:4.1884486549070408] [-13.49578523030644:14.738104330719741] [-10.89471969222674:12.795943519910637] [-13.432264153381981:13.849111467030262] [-11.304488258934835:15.043081770831945] [-9.7445075198431894:13.324072623775493] [-7.5695424255621671:11.071037743631733] [-5.302750701892041:9.1393959649225476] [-10.428295323051795:6.4051237694387089] [-1.6513707769367687:11.080880393739575] [-15.431100215960749:13.521248089994929] [-2.2549241582959212:8.6252865751728489] [-4.476154674581168:7.0613989093962184] [-4.2521761542032044:6.9647266712476545] [-4.7824252609783278:6.9279068989751398] [-4.1874893086637215:7.1866022007402375] [-2.4112320988348519:37.277073194327485] [-3.6011557875220404:6.8801726805017775] [-3.5540310549999905:5.6460161417325283] [-10.672350376423633:6.7807790509079053] [-3.3087544383511434:6.3661809833441252] [-3.0862237880198968:5.5181980821936474] [-3.2741387065877099:3.008809910432225] [-8.7124817508288999:6.8859110447022589] [-7.6558639572322189:6.7253238889480791] [-12.608922485004511:7.3345976601153469] [-5.6658899694084282:5.9182055047035229] [-2.2661851969107456:8.6513269764907061] [-2.4608218983590699:5.5051291629654333] [-1.7336208860138416:11.421681990588892] [-1.8549637508036687:9.5371888630754231] [-4.5856090356324479:4.5193672580098747] [-2.93201374724014:4.1883858575881261] [-16.288867884655819:15.241324198957015] [-12.448021637359579:13.284073058516174] [-12.187129223713185:13.849111467030262] [-10.69068108873217:15.043081770831945] [-10.517077062005063:12.811326496206135] [-7.8704048404282663:8.2439540822065833] [-5.302750701892041:8.3088118204417185] [-11.60423865732019:6.3296064536018717] [-1.6557209876296652:11.497452556209495] [-20.75934991357763:13.02458424412573] [-2.2661851969107456:8.6513269764907044] [-4.1168467202738288:7.0613989093962184] [-3.8674858667300618:6.9647266712476545] [-4.424421791566111:6.9279068989751398] [-4.4946722900144378:7.1866022007402375] [-2.1361719141003741:37.582131699068597] [-3.7786661629514313:6.8801726805017775] [-3.5085963810646938:5.7302903021123095] [-9.939669111448417:6.7807790509079053] [-3.1725032779227278:6.3881494651915887] [-3.100173818181124:5.61430628539709] [-3.2751409009422705:3.0803052260171633] [-8.5360229535354382:6.8859110447022589] [-7.8733067944025077:6.7253238889480791] [-12.806128143258036:7.3568747684833156] [-5.6658899694084282:6.0918154244580158] [-2.2549241582959212:8.8230483267123052] [-2.4677436498107257:5.5049950513814405] [-1.795444139875328:11.481097166115065] [-1.7491285853902816:9.5290879951941054] [-4.4106139499030874:3.9710702917580432] [-2.9758743585776686:4.1884486549070408] [-15.148472464161827:17.950617253972514] [-11.740816192740123:13.923290179228424] [-10.028056206679478:13.888007393270085] [-10.480519562017797:14.137702319922251] [-9.4878028217057295:13.324072623775493] [-7.7953772048353587:9.9058216917879669] [-5.3400039058717406:9.1393959649225476] [-10.832526330875304:6.4451798131712872] [-1.6513707769367687:11.497452556209495] [-17.35720986345061:13.150328027565292] [-2.2549241582959212:8.8230483267123034] [-3.9210788047204259:6.6968865574289085] [-3.5307978446453681:6.956559251373462] [-3.9116394922222644:6.9279068989751398] [-4.0356904042842077:7.1866022007402375] [-2.4112320988348519:38.763065317104733] [-4.0599447930735906:6.8801726805017775] [-3.5076600743439292:5.8037115114351074] [-10.795212417361933:6.3722861289300576] [-3.2483579943249379:6.3881494651915887] [-3.0862237880198968:5.61430628539709] [-3.2581068474142354:3.0803052260171633] [-8.7042606583966204:6.8072821789419597] [-7.9009502578246726:6.7253238889480791] [-12.608922485004511:7.3568747684833156] [-5.4038839545104507:6.0690889114399615] [-2.1979134934686972:8.8443650957113338] [-2.2144429191216148:5.5067674815653929] [-1.7868359381719907:11.421681990588892] [-1.8442302731102025:9.5290879951941054] [-4.6640095211603976:4.600386321162353] [-3.0642677235529128:4.1884633899770396] [-13.49578523030644:15.371384430568762] [-11.772757775311929:18.043662960664655] [-12.859485858829355:13.888007393270085] [-11.719990053471053:11.956821512460088] [-9.5825227925264382:12.777152401642512] [-7.8704048404282663:10.419010295019758] [-5.3400039058717406:8.6183518355539377] [-10.832526330875304:5.7103231238973775] [-1.6288501449853396:11.345251406320132] [-17.058689358032368:13.692335380737477] [-2.1979134934686972:8.8443650957113338] [-3.7563466512799337:6.8777511650931622] [-3.8348245601740278:6.7564491557885296] [-3.9955277052493252:6.6562908317416154] [-3.9866843295561751:6.4422180203146233] [-2.0912877019213236:37.333263457732059] [-4.0791610879916123:6.764222672932851] [-3.4441899910027551:5.8505466792184597] [-10.672350376423633:6.7329865678271199] [-3.3308367754462807:6.3881494651915887] [-3.100173818181124:5.61430628539709] [-3.2741387065877099:3.0658883219639468] [-8.7124817508288999:6.7804682755057906] [-7.7986901638553228:6.7199746734368038] [-11.908421389511537:6.9694653547399179] [-5.6146521462170389:6.2901769985755189] [-2.2438726375207221:8.7810179291062145] [-2.4608218983590699:5.508155958865764] [-1.7353013855132575:10.763373685386451] [-1.8549637508036687:9.5290879951941054] [-4.9198345080123262:4.0545978658001562] [-2.7815426389584927:4.1884633899767314] [-13.254467541604686:30.030201852214748] [-15.339653803058468:22.186404893644415] [-12.969215232718046:18.320953019525845] [-10.857462243929739:16.60357694917521] [-9.6144686597647873:15.156777666964301] [-7.7953772048353587:11.071037743631733] [-5.6387325464724229:8.6183518355539377] [-11.60423865732019:6.3296064536018717] [-1.6470700141524921:11.238021921687222] [-17.465826495331822:25.912431021135305] [-2.2438726375207221:8.7810179291062127] [-3.7375019220751686:7.0613989093962184] [-3.7547142194999923:6.9647266712476545] [-3.7499577198867176:6.8835898872062069] [-3.7037389438525019:6.8905241585489749] [-2.0910409398667209:38.952508636057651] [-3.966745896638205:6.8526590068401338] [-3.3804452751993987:5.8505466792184597] [-10.235613908990929:6.7807790509079053] [-3.4101376596863537:6.2622879556279472] [-3.100173818181124:5.5940824986999367] [-3.2809590528274826:3.0803052260171633] [-8.719949999612238:6.8859110447022589] [-7.8733067944025077:6.6193488602783601] [-11.176606484874021:6.9966962098910654] [-5.9480982996590663:6.6913456732676186] [-2.2661851969107456:8.6252865751728507] [-2.4677436498107257:5.4727228206564353] [-1.795444139875328:10.931223676927818] [-1.8549637508036687:9.046193042427161] [-4.7666481496227275:4.5193672580098747] [-3.0642677235529128:4.2035248410019843] [-14.352172100317439:14.576678360160408] [-14.675011354108323:21.600678958379273] [-12.859485858829355:18.035154492283791] [-11.719990053471053:15.894141460760855] [-9.8263999285678416:14.954068249813659] [-7.8704048404282663:9.9058216917879669] [-5.3400039058717406:7.7870510271110547] [-10.940952498932303:6.4946936751372295] [-1.6557209876296652:11.003983155673593] [-16.078365293431347:13.387048788357642] [-2.2661851969107456:8.6252865751728489] [-3.7375019220751686:6.8777511650931622] [-3.7547142194999923:6.956559251373462] [-3.7738702394970329:6.9279068989751398] [-3.8033779745688321:7.1866022007402375] [-1.920949017320285:37.582131699068597] [-3.6921930637641989:6.8801726805017775] [-3.4122723206416516:5.8505466792184597] [-10.795212417361933:7.8230945625236448] [-3.4101376596863537:6.3661809833441252] [-3.0716151219241681:5.528375079288824] [-3.3645519668677726:3.0803052260171633] [-8.8957409436162003:6.7804682755057906] [-7.9432194905551858:6.7253238889480791] [-12.180725136987864:6.9966962098910654] [-6.3690234074938417:6.5494655615865245] [-2.2661851969107456:8.6513269764907061] [-2.1664338089866755:5.5051291629654333] [-1.7868359381719907:10.794461966528576] [-1.7977249568620017:9.5371888630754231] [-4.5960515766731671:3.9710702917580432] [-2.937025010713227:4.1786573082162253] [-13.439289238449405:17.246038362262926] [-14.675011354108323:12.279774526270828] [-13.432264153381981:17.480039114121706] [-11.304488258934835:15.576709418915033] [-10.517077062005063:14.253262729827403] [-7.7953772048353587:8.2439540822065833] [-5.2598060308817232:10.976752477381686] [-10.447211282850134:6.4051237694387089] [-1.6557209876296652:11.497452556209495] [-15.483315916559533:14.965301608790906] [-2.2661851969107456:8.6513269764907044] [-3.7375019220751686:7.0613989093962184] [-3.7547142194999923:6.9647266712476545] [-3.6928531903619675:6.8835898872062069] [-3.7037389438525019:6.8905241585489749] [-2.4112320988348519:39.561296675869983] [-3.5442482047196928:6.8526590068401338] [-3.5112493522441057:5.7694774313099506] [-10.672350376423633:10.049364856911065] [-3.4101376596863537:6.3881494651915887] [-3.04352838396498:5.61430628539709] [-3.3645519668677726:3.0803052260171633] [-8.874106548846207:6.8859110447022589] [-7.9768943782608854:6.7199746734368038] [-12.806128143258036:6.7724178009313079] [-6.3690234074938417:6.9426226291832212] [-2.2266217720314656:8.8230483267123052] [-2.2063222235636872:5.5051291629654333] [-1.795444139875328:10.812463181002618] [-1.7977249568620017:9.5290879951941054] [-4.7097294743750568:4.600386321162353] [-3.0642677235529128:4.1884633899770396] [-16.036208528177525:15.371384430568762] [-11.126056575438174:18.043662960664655] [-13.771236602816394:12.685808638412011] [-11.304488258934835:15.136477025858319] [-11.239845354260678:14.004243048077042] [-7.6508524644172526:8.1318763811324608] [-5.3400039058717406:10.345251241775454] [-10.832526330875304:6.3296064536018717] [-1.6402943906295715:11.497452556209495] [-18.90794532881042:13.692335380737477] [-2.2266217720314656:8.8230483267123034] [-3.8175605004581348:6.8582734544440207] [-3.4902102026990542:6.956559251373462] [-3.86063438795192:6.9279068989751398] [-3.5390366862821665:7.1866022007402375] [-2.4112320988348519:39.561296675869983] [-3.5442482047196928:6.8801726805017775] [-3.5540310549999905:5.8037115114351074] [-9.6502891508139044:12.014789018105828] [-3.4069728118293559:6.3661809833441252] [-3.0135582717190368:5.5940824986999367] [-3.3590955282641044:3.0803052260171633] [-8.5858306356819085:6.7077668602944449] [-8.1133468705332348:6.7253238889480791] [-12.806128143258036:6.4287211750648927] [-5.2904749835790916:6.6913456732676186] [-2.2438726375207221:8.8443650957113338] [-2.228354737437138:5.5067674815653929] [-1.7868359381719907:11.22922119048582] [-1.7977249568620017:9.5371888630754231] [-4.9198345080123262:3.5865446192707728] [-2.9758743585776686:4.2035248410019843] [-16.036208528177525:15.371384430568762] [-14.675011354108323:18.043662960664655] [-11.566574636496075:13.308217116483936] [-10.322417526762569:12.440789645306353] [-9.7445075198431894:13.324072623775493] [-7.5695424255621671:10.419010295019758] [-5.302750701892041:9.4713174295185709] [-10.940952498932303:6.4051237694387089] [-1.6470700141524921:11.345251406320132] [-18.90794532881042:13.692335380737477] [-2.2438726375207221:8.8443650957113338] [-3.2043962271941808:6.8777511650931622] [-3.1364567684152367:6.7564491557885296] [-3.3989336698674104:6.6562908317416154] [-3.4223251155647882:6.7271230649479454] [-2.1251139830481023:38.952508636057651] [-3.5373319888628081:6.764222672932851] [-3.5540310549999905:5.8505466792184597] [-9.9288163991792917:10.866643076339161] [-3.3860491162217112:6.3881494651915887] [-2.9849381172387806:5.61430628539709] [-3.2897211262819179:3.0803052260171633] [-8.578342949905819:6.7804682755057906] [-8.1813676710170213:6.7199746734368038] [-12.806128143258036:7.1267241390343585] [-5.6944132501433904:6.1563084939898287] [-2.2438726375207221:8.8443650957113338] [-2.228354737437138:5.508155958865764] [-1.7386355700518388:11.481097166115065] [-1.8442302731102025:9.7655657919939181] [-4.9198345080123262:4.0545978658001562] [-2.9119115510503923:4.1884633899575086] [-16.288867884655819:13.486831112238164] [-11.971203223149953:12.795943519910637] 